\data\
ngram 1=3660
ngram 2=16782
ngram 3=22184

\1-grams:
-4.252715	<unk>	0
0	<s>	-0.6705439
-1.2482861	</s>	0
-4.1157155	﻿	-0.08512596
-3.035834	two	-0.12589969
-3.9630654	households	-0.08512596
-3.096028	both	-0.15457311
-3.8351657	alike	-0.085126
-1.866047	in	-0.41178274
-4.1157155	dignity	-0.08512596
-2.7707174	fair	-0.11956598
-3.4150896	verona	-0.10605427
-2.727183	where	-0.19101305
-2.6287649	we	-0.17837241
-3.249279	lay	-0.10410951
-2.6072888	our	-0.1027959
-3.9630654	scene	-0.08512596
-2.376945	from	-0.28360802
-3.352519	ancient	-0.08512596
-4.1157155	grudge	-0.08512596
-3.576202	break	-0.08512596
-1.7259092	to	-0.3374544
-3.1659286	new	-0.08512596
-3.9630654	mutiny	-0.08512596
-3.686661	civil	-0.08512596
-3.035834	blood	-0.17397116
-3.1659286	makes	-0.12058866
-3.2056074	hands	-0.1350382
-4.1157155	unclean	-0.08512596
-3.2978384	forth	-0.1364405
-1.8261176	the	-0.18396163
-3.8351657	fatal	-0.08512596
-4.1157155	loins	-0.08512596
-1.7617681	of	-0.3613648
-2.8191066	these	-0.11061776
-3.9630654	foes	-0.08512596
-1.9360293	a	-0.16907331
-4.1157155	pair	-0.08512596
-4.1157155	starcrossd	-0.08512596
-3.352519	lovers	-0.08512596
-2.8735714	take	-0.18732364
-2.7557158	their	-0.103678465
-3.035834	life	-0.18049186
-3.096028	whose	-0.09997114
-4.1157155	misadventurd	-0.08512596
-3.576202	piteous	-0.12804241
-4.1157155	overthrows	-0.08512596
-2.6399148	doth	-0.122279465
-1.9806832	with	-0.34937173
-2.6072888	death	-0.2373525
-3.8351657	bury	-0.085126
-4.1157155	parents	-0.08512596
-3.9630654	strife	-0.08512596
-3.488217	fearful	-0.08512596
-4.1157155	passage	-0.08512596
-4.1157155	deathmarkd	-0.08512596
-2.3831534	love	-0.27197295
-1.5819315	and	-0.28864682
-4.1157155	continuance	-0.08512596
-3.686661	rage	-0.13946854
-2.5219576	which	-0.18359537
-2.1586936	but	-0.23574601
-4.1157155	childrens	-0.08512596
-3.352519	end	-0.16456644
-3.8351657	naught	-0.085126
-3.1659286	could	-0.168928
-3.686661	remove	-0.08512596
-2.0360477	is	-0.317811
-2.6072888	now	-0.18131454
-3.4150896	hours	-0.08512596
-4.1157155	traffic	-0.08512596
-4.1157155	stage	-0.08512596
-2.6513584	if	-0.3237335
-2.1298387	you	-0.271093
-3.9630654	patient	-0.085126
-3.352519	ears	-0.28634578
-3.8351657	attend	-0.085126
-2.5485811	what	-0.17135692
-2.539524	here	-0.26623723
-2.4506707	shall	-0.21571632
-3.9630654	miss	-0.08512596
-3.8351657	toil	-0.085126
-4.1157155	strive	-0.08512596
-3.9630654	mend	-0.08512596
-4.1157155	gregory	-0.08512596
-2.4363015	on	-0.31379893
-2.027693	my	-0.25017545
-3.1295736	word	-0.15520205
-2.6631117	well	-0.22015981
-2.2316153	not	-0.26069638
-3.9630654	carry	-0.08512596
-4.1157155	coals	-0.08512596
-2.4655318	no	-0.12858504
-2.0088022	for	-0.3186979
-2.675192	then	-0.18333119
-2.7004101	should	-0.2503527
-2.3414497	be	-0.19804795
-4.1157155	colliers	-0.08512596
-1.9684799	i	-0.39306313
-3.4150896	mean	-0.10844315
-2.530652	an	-0.22071752
-3.9630654	choler	-0.08512596
-3.4150896	draw	-0.10605427
-3.576202	ay	-0.119113125
-3.488217	while	-0.085126
-3.064889	live	-0.13109201
-2.4363015	your	-0.111375645
-3.9630654	neck	-0.08512596
-2.6178942	out	-0.25024375
-4.1157155	collar	-0.08512596
-3.8351657	strike	-0.12804241
-3.576202	quickly	-0.08512596
-2.8735714	being	-0.1011344
-3.488217	moved	-0.15920661
-2.1777525	thou	-0.27048457
-3.0086014	art	-0.24436514
-3.8351657	dog	-0.08512596
-3.1295736	house	-0.21571895
-3.1295736	montague	-0.15877718
-4.1157155	moves	-0.08512596
-2.1440265	me	-0.29041126
-3.4150896	move	-0.08512596
-3.576202	stir	-0.12058866
-3.9630654	valiant	-0.08512596
-3.035834	stand	-0.1319827
-3.8351657	therefore	-0.10410951
-4.1157155	runnst	-0.08512596
-2.9829764	away	-0.3561429
-1.8854859	that	-0.28702432
-2.5219576	will	-0.22672985
-3.686661	wall	-0.29947728
-3.1295736	any	-0.18017688
-2.7557158	man	-0.25322714
-2.4968727	or	-0.19411613
-3.4150896	maid	-0.20074481
-3.686661	montagues	-0.12058866
-3.576202	shows	-0.085126
-2.3588347	thee	-0.19248097
-3.8351657	weak	-0.085126
-3.8351657	slave	-0.085126
-4.1157155	weakest	-0.08512596
-3.8351657	goes	-0.085126
-3.0086014	tis	-0.17392561
-2.9358597	true	-0.13365223
-3.686661	women	-0.08512596
-4.1157155	weaker	-0.08512596
-4.1157155	vessels	-0.08512596
-2.6072888	are	-0.13628621
-3.249279	ever	-0.10410951
-3.8351657	thrust	-0.085126
-4.1157155	push	-0.08512596
-3.0086014	men	-0.16901329
-2.4363015	his	-0.1254603
-3.686661	maids	-0.085126
-3.352519	quarrel	-0.12804241
-3.8351657	between	-0.15920661
-3.9630654	masters	-0.085126
-2.8546474	us	-0.17345984
-2.4223924	all	-0.2557725
-2.5868251	one	-0.15593657
-3.2978384	show	-0.12396087
-3.1659286	myself	-0.14089927
-3.9630654	tyrant	-0.20159672
-2.6178942	when	-0.3083951
-2.557831	have	-0.21331161
-3.686661	fought	-0.08512596
-3.686661	cruel	-0.08512596
-3.8351657	cut	-0.08512596
-3.2978384	off	-0.08512596
-3.8351657	heads	-0.13946854
-4.1157155	maidenheads	-0.08512596
-2.1027822	it	-0.30743217
-3.8351657	sense	-0.085126
-3.488217	wilt	-0.15657446
-2.7707174	they	-0.13077712
-2.9358597	must	-0.13425314
-3.488217	feel	-0.08512596
-3.4150896	am	-0.11445239
-3.9630654	able	-0.20159672
-3.686661	known	-0.08512596
-3.576202	pretty	-0.11534177
-3.9630654	piece	-0.20159672
-3.4150896	flesh	-0.26158765
-3.9630654	fish	-0.08512596
-3.8351657	hadst	-0.19464083
-3.1659286	been	-0.08512596
-4.1157155	poorjohn	-0.08512596
-2.2732494	thy	-0.1473324
-4.1157155	tool	-0.08512596
-3.064889	comes	-0.18924257
-4.1157155	naked	-0.08512596
-3.9630654	weapon	-0.08512596
-2.914089	back	-0.30214012
-2.914089	how	-0.12918349
-3.2978384	turn	-0.10410951
-3.1295736	run	-0.15015295
-3.2978384	fear	-0.08512596
-3.2978384	marry	-0.11690922
-2.8191066	let	-0.28634578
-3.488217	law	-0.08512596
-4.1157155	sides	-0.08512596
-2.7557158	them	-0.1383736
-3.8351657	begin	-0.085126
-3.9630654	frown	-0.08512596
-2.1662169	as	-0.27372232
-3.8351657	pass	-0.085126
-2.2982292	by	-0.23983656
-4.1157155	list	-0.08512596
-3.488217	nay	-0.09601505
-3.8351657	dare	-0.08512596
-3.488217	bite	-0.26158765
-3.9630654	thumb	-0.15920661
-2.5219576	at	-0.24911307
-4.1157155	disgrace	-0.08512596
-3.249279	bear	-0.13946854
-2.6072888	do	-0.18903539
-2.6287649	sir	-0.25024375
-3.576202	side	-0.12804241
-2.8365135	say	-0.15941395
-3.488217	serve	-0.12058866
-2.4968727	good	-0.19635579
-3.249279	better	-0.12396087
-3.686661	kinsmen	-0.13946854
-4.1157155	yes	-0.08512596
-2.914089	lie	-0.1671844
-3.686661	remember	-0.12804241
-4.1157155	swashing	-0.08512596
-3.9630654	blow	-0.20159672
-2.9829764	part	-0.16309811
-3.8351657	fools	-0.085126
-3.249279	put	-0.23335053
-2.6287649	up	-0.2658166
-3.8351657	swords	-0.15920661
-3.064889	know	-0.18519379
-3.8351657	drawn	-0.085126
-3.488217	among	-0.12058866
-4.1157155	heartless	-0.08512596
-4.1157155	hinds	-0.08512596
-3.488217	benvolio	-0.12058866
-2.893358	look	-0.23313549
-2.6287649	upon	-0.35126787
-3.249279	keep	-0.1252322
-3.1295736	peace	-0.15370981
-3.488217	sword	-0.085126
-3.9630654	manage	-0.08512596
-3.2056074	talk	-0.27992606
-3.2978384	hate	-0.17656241
-3.488217	hell	-0.08512596
-4.1157155	coward	-0.08512596
-4.1157155	clubs	-0.08512596
-4.1157155	bills	-0.08512596
-3.9630654	partisans	-0.08512596
-3.686661	beat	-0.08512596
-3.1295736	down	-0.2123009
-3.9630654	capulets	-0.08512596
-3.686661	noise	-0.12804241
-2.2589233	this	-0.19177943
-2.8023705	give	-0.29616824
-3.1659286	long	-0.15183623
-3.249279	ho	-0.521326
-4.1157155	crutch	-0.08512596
-3.249279	why	-0.09136206
-3.064889	call	-0.15940042
-2.9829764	old	-0.093056425
-2.6178942	come	-0.21535417
-4.1157155	flourishes	-0.08512596
-3.9630654	blade	-0.08512596
-3.8351657	spite	-0.08512596
-3.2056074	villain	-0.11144785
-3.249279	capulet	-0.12058866
-3.488217	hold	-0.098087505
-2.8191066	go	-0.26230717
-4.1157155	m	-0.08512596
-3.1295736	wife	-0.30414796
-3.8351657	shalt	-0.08512596
-3.352519	foot	-0.08512596
-3.8351657	seek	-0.08512596
-3.686661	foe	-0.12804241
-4.1157155	rebellious	-0.08512596
-4.1157155	subjects	-0.08512596
-3.9630654	enemies	-0.08512596
-4.1157155	profaners	-0.08512596
-4.1157155	neighbourstained	-0.08512596
-3.686661	steel	-0.08512596
-3.1659286	hear	-0.115341805
-4.1157155	beasts	-0.08512596
-3.9630654	quench	-0.20159672
-3.576202	fire	-0.085126
-4.1157155	pernicious	-0.08512596
-4.1157155	purple	-0.08512596
-4.1157155	fountains	-0.08512596
-4.1157155	issuing	-0.08512596
-3.686661	veins	-0.13946854
-3.9630654	pain	-0.08512596
-3.686661	torture	-0.08512596
-3.1295736	those	-0.12872808
-3.488217	bloody	-0.08512596
-4.1157155	throw	-0.08512596
-4.1157155	mistempered	-0.08512596
-3.9630654	weapons	-0.08512596
-3.8351657	ground	-0.08512596
-3.9630654	sentence	-0.08512596
-3.2978384	prince	-0.12872808
-3.576202	three	-0.085126
-3.9630654	brawls	-0.08512596
-4.1157155	bred	-0.08512596
-3.8351657	airy	-0.085126
-4.1157155	thrice	-0.08512596
-4.1157155	disturbd	-0.08512596
-3.686661	quiet	-0.08512596
-3.8351657	streets	-0.08512596
-3.096028	made	-0.10605427
-3.9630654	veronas	-0.08512596
-3.9630654	citizens	-0.08512596
-3.8351657	cast	-0.085126
-3.1659286	grave	-0.21734808
-4.1157155	beseeming	-0.08512596
-3.9630654	ornaments	-0.08512596
-4.1157155	wield	-0.08512596
-3.9630654	cankred	-0.08512596
-3.9630654	disturb	-0.08512596
-2.9587793	again	-0.3406577
-3.096028	lives	-0.14517114
-3.686661	pay	-0.08512596
-3.9630654	forfeit	-0.20159672
-2.8546474	time	-0.19441858
-3.1295736	rest	-0.14089927
-3.686661	depart	-0.13946854
-3.9630654	along	-0.08512596
-4.1157155	afternoon	-0.085126
-3.8351657	farther	-0.085126
-3.686661	pleasure	-0.08512596
-3.488217	case	-0.13946854
-4.1157155	freetown	-0.08512596
-3.9630654	common	-0.08512596
-3.8351657	judgment	-0.085126
-3.4150896	place	-0.1717242
-3.4150896	once	-0.10605427
-2.5672822	more	-0.15121949
-2.893358	who	-0.12635833
-3.488217	set	-0.11144785
-4.1157155	abroach	-0.08512596
-2.9587793	speak	-0.19420964
-4.1157155	nephew	-0.08512596
-2.8546474	were	-0.10844315
-3.9630654	began	-0.08512596
-4.1157155	servants	-0.08512596
-4.1157155	adversary	-0.08512596
-3.8351657	yours	-0.085126
-3.488217	close	-0.085126
-4.1157155	fighting	-0.08512596
-2.9587793	ere	-0.19028601
-2.8365135	did	-0.1706764
-3.8351657	approach	-0.3414364
-3.9630654	drew	-0.08512596
-4.1157155	instant	-0.08512596
-3.2056074	came	-0.11775554
-3.9630654	fiery	-0.08512596
-2.7412152	tybalt	-0.17271699
-4.1157155	prepard	-0.08512596
-2.4580376	he	-0.25597063
-3.9630654	breathd	-0.08512596
-4.1157155	defiance	-0.08512596
-4.1157155	swung	-0.08512596
-3.2056074	about	-0.12396087
-3.4150896	head	-0.09997114
-4.1157155	winds	-0.08512596
-3.249279	nothing	-0.19562776
-3.488217	hurt	-0.12058866
-3.576202	withal	-0.12804241
-4.1157155	hissd	-0.08512596
-2.395843	him	-0.26054934
-3.576202	scorn	-0.12804241
-4.1157155	interchanging	-0.08512596
-3.9630654	thrusts	-0.08512596
-3.8351657	blows	-0.085126
-2.9358597	till	-0.17435654
-4.1157155	parted	-0.08512596
-3.488217	either	-0.08512596
-2.914089	o	-0.1014181
-2.5672822	romeo	-0.25714865
-3.488217	saw	-0.14747328
-3.8351657	today	-0.3414364
-3.8351657	right	-0.08512596
-3.9630654	glad	-0.08512596
-2.8023705	was	-0.118132226
-3.8351657	fray	-0.15920661
-3.2056074	madam	-0.18965487
-3.352519	hour	-0.12804238
-3.035834	before	-0.14933434
-4.1157155	worshippd	-0.08512596
-3.488217	sun	-0.1011344
-4.1157155	peerd	-0.08512596
-3.8351657	golden	-0.08512596
-3.8351657	window	-0.085126
-3.8351657	east	-0.08512596
-4.1157155	troubled	-0.08512596
-3.352519	mind	-0.08512596
-4.1157155	drave	-0.08512596
-3.686661	walk	-0.08512596
-3.686661	abroad	-0.13946854
-3.9630654	underneath	-0.08512596
-4.1157155	grove	-0.08512596
-4.1157155	sycamore	-0.08512596
-4.1157155	westward	-0.08512596
-4.1157155	rooteth	-0.08512596
-4.1157155	citys	-0.08512596
-2.2450547	so	-0.16150457
-3.1659286	early	-0.09731424
-4.1157155	walking	-0.08512596
-2.9829764	see	-0.14364621
-3.1295736	son	-0.23095131
-3.686661	towards	-0.08512596
-4.1157155	ware	-0.08512596
-4.1157155	stole	-0.08512596
-3.352519	into	-0.18250535
-4.1157155	covert	-0.08512596
-3.9630654	wood	-0.08512596
-4.1157155	measuring	-0.08512596
-3.8351657	affections	-0.085126
-3.4150896	own	-0.12303237
-3.1295736	most	-0.08512596
-3.8351657	sought	-0.08512596
-3.8351657	might	-0.12058866
-3.488217	found	-0.14781812
-2.5868251	too	-0.20011778
-3.1659286	many	-0.09997114
-3.9630654	weary	-0.08512596
-3.9630654	self	-0.08512596
-3.9630654	pursud	-0.08512596
-3.8351657	humour	-0.085126
-4.1157155	pursuing	-0.08512596
-3.9630654	gladly	-0.08512596
-4.1157155	shunnd	-0.08512596
-3.9630654	fled	-0.08512596
-3.488217	morning	-0.11534177
-2.5672822	hath	-0.15382914
-2.5969365	there	-0.20293899
-3.488217	seen	-0.12058866
-3.096028	tears	-0.17243883
-4.1157155	augmenting	-0.08512596
-3.9630654	fresh	-0.08512596
-3.8351657	mornings	-0.085126
-3.686661	dew	-0.08512596
-4.1157155	adding	-0.08512596
-3.488217	clouds	-0.11144785
-3.576202	deep	-0.085126
-3.686661	sighs	-0.08512596
-3.352519	soon	-0.1011344
-4.1157155	allcheering	-0.08512596
-4.1157155	furthest	-0.08512596
-4.1157155	bean	-0.08512596
-4.1157155	shady	-0.08512596
-3.9630654	curtains	-0.08512596
-4.1157155	auroras	-0.08512596
-3.249279	bed	-0.20718144
-2.9587793	light	-0.19605309
-4.1157155	steals	-0.08512596
-3.488217	home	-0.08512596
-3.2978384	heavy	-0.08512596
-3.9630654	private	-0.08512596
-3.488217	chamber	-0.19464083
-4.1157155	pens	-0.08512596
-3.352519	himself	-0.10844315
-3.9630654	shuts	-0.20159672
-3.9630654	windows	-0.08512596
-3.9630654	locks	-0.08512596
-3.686661	daylight	-0.08512596
-4.1157155	artificial	-0.08512596
-2.7135904	night	-0.21003701
-3.249279	black	-0.10605427
-4.1157155	portentous	-0.08512596
-3.488217	prove	-0.085126
-3.488217	unless	-0.085126
-3.488217	counsel	-0.16456644
-2.7412152	may	-0.19332153
-3.686661	cause	-0.12804241
-3.4150896	noble	-0.08512596
-3.686661	uncle	-0.08512596
-3.9630654	neither	-0.08512596
-2.9358597	nor	-0.08512596
-2.8365135	can	-0.14738783
-3.8351657	learn	-0.085126
-4.1157155	importund	-0.08512596
-3.352519	means	-0.19636938
-3.2978384	other	-0.098087505
-3.352519	friend	-0.11534177
-3.9630654	counsellor	-0.08512596
-3.686661	secret	-0.13946854
-3.576202	far	-0.08512596
-3.9630654	sounding	-0.08512596
-4.1157155	discovery	-0.08512596
-3.9630654	bud	-0.08512596
-4.1157155	bit	-0.08512596
-3.576202	envious	-0.12058866
-3.9630654	worm	-0.08512596
-3.9630654	spread	-0.08512596
-2.914089	sweet	-0.117201485
-3.9630654	leaves	-0.08512596
-3.686661	air	-0.17720135
-4.1157155	dedicate	-0.08512596
-3.2978384	beauty	-0.08512593
-3.9630654	whence	-0.08512596
-3.9630654	sorrows	-0.08512596
-3.9630654	grow	-0.08512596
-2.7862556	would	-0.18730539
-4.1157155	willingly	-0.08512596
-3.8351657	cure	-0.085126
-3.9630654	please	-0.08512596
-4.1157155	step	-0.08512596
-3.8351657	aside	-0.085126
-2.6072888	ill	-0.17118406
-4.1157155	grievance	-0.08512596
-2.914089	much	-0.17745352
-4.1157155	denied	-0.08512596
-3.8351657	wert	-0.15920661
-3.352519	happy	-0.08512593
-3.035834	stay	-0.1932968
-3.686661	shrift	-0.12804241
-3.488217	lets	-0.11534177
-3.9630654	morrow	-0.08512596
-3.1659286	cousin	-0.2229851
-2.8735714	day	-0.27810317
-2.9358597	young	-0.16625507
-3.9630654	struck	-0.20159672
-3.686661	nine	-0.12804241
-3.576202	sad	-0.08512596
-4.1157155	seem	-0.08512596
-3.064889	father	-0.24668998
-4.1157155	went	-0.08512596
-2.9829764	hence	-0.2533361
-3.8351657	fast	-0.15920661
-3.9630654	sadness	-0.08512596
-4.1157155	lengthens	-0.08512596
-3.064889	romeos	-0.15667014
-3.352519	having	-0.08512596
-3.4150896	short	-0.11534177
-2.2781317	her	-0.14015494
-3.9630654	favour	-0.08512596
-3.8351657	alas	-0.11534177
-3.1659286	gentle	-0.10249546
-3.8351657	view	-0.085126
-4.1157155	tyrannous	-0.08512596
-3.686661	rough	-0.08512596
-3.8351657	proof	-0.085126
-4.1157155	muffled	-0.08512596
-3.1295736	still	-0.09997114
-3.1659286	without	-0.08512596
-2.8735714	eyes	-0.18608317
-4.1157155	pathways	-0.08512596
-4.1157155	dine	-0.08512596
-2.8023705	yet	-0.1365458
-2.9587793	tell	-0.3767423
-3.9630654	heard	-0.08512596
-3.8351657	heres	-0.08512596
-4.1157155	brawling	-0.08512596
-3.576202	loving	-0.085126
-3.686661	anything	-0.08512596
-3.352519	first	-0.08512596
-4.1157155	create	-0.08512596
-4.1157155	lightness	-0.08512596
-4.1157155	serious	-0.08512596
-3.9630654	vanity	-0.20159672
-3.9630654	misshapen	-0.08512596
-4.1157155	chaos	-0.08512596
-4.1157155	wellseeming	-0.08512596
-4.1157155	forms	-0.08512596
-4.1157155	feather	-0.08512596
-3.576202	lead	-0.085126
-3.576202	bright	-0.08512596
-3.9630654	smoke	-0.08512596
-3.4150896	cold	-0.08512596
-3.4150896	sick	-0.17720135
-4.1157155	health	-0.08512596
-4.1157155	stillwaking	-0.08512596
-3.2056074	sleep	-0.1364405
-3.4150896	dost	-0.18886596
-3.8351657	laugh	-0.085126
-3.686661	coz	-0.08512596
-3.686661	rather	-0.26186562
-3.352519	weep	-0.1330836
-3.1295736	heart	-0.122364484
-3.4150896	hearts	-0.23519328
-3.8351657	oppression	-0.085126
-2.687618	such	-0.25047693
-3.1295736	loves	-0.08512596
-4.1157155	transgression	-0.08512596
-3.8351657	griefs	-0.085126
-2.893358	mine	-0.2302317
-3.686661	breast	-0.19464083
-4.1157155	propagate	-0.08512596
-4.1157155	prest	-0.08512596
-3.2056074	thine	-0.16226129
-3.576202	hast	-0.13390572
-3.9630654	shown	-0.08512596
-4.1157155	add	-0.08512596
-3.2056074	grief	-0.12058866
-3.9630654	raisd	-0.08512596
-4.1157155	fume	-0.08512596
-3.9630654	purgd	-0.08512596
-4.1157155	sparkling	-0.08512596
-3.9630654	vexd	-0.08512596
-3.686661	sea	-0.08512596
-4.1157155	nourishd	-0.08512596
-3.1659286	else	-0.11775554
-4.1157155	madness	-0.08512596
-4.1157155	discreet	-0.08512596
-4.1157155	choking	-0.08512596
-3.9630654	gall	-0.08512596
-4.1157155	preserving	-0.08512596
-3.352519	farewell	-0.26783344
-3.8351657	soft	-0.15920661
-3.2056074	leave	-0.27659106
-3.9630654	wrong	-0.08512596
-4.1157155	tut	-0.08512596
-3.9630654	lost	-0.085126
-3.352519	hes	-0.22029603
-2.6399148	some	-0.108765416
-3.9630654	groan	-0.08512596
-4.1157155	sadly	-0.08512596
-3.1295736	bid	-0.3679899
-2.893358	make	-0.23706503
-3.576202	ah	-0.098087505
-3.8351657	urgd	-0.085126
-3.8351657	woman	-0.15920661
-4.1157155	aimd	-0.08512596
-3.4150896	near	-0.08512596
-3.9630654	supposd	-0.08512596
-3.8351657	lovd	-0.085126
-4.1157155	markman	-0.08512596
-3.352519	shes	-0.20074481
-3.576202	mark	-0.08512596
-4.1157155	soonest	-0.08512596
-3.4150896	hit	-0.14781812
-3.9630654	shell	-0.20159672
-3.9630654	cupids	-0.08512596
-4.1157155	arrow	-0.08512596
-2.4506707	she	-0.22686692
-4.1157155	dians	-0.08512596
-3.2978384	wit	-0.2008867
-3.8351657	strong	-0.085126
-4.1157155	chastity	-0.08512596
-3.9630654	armd	-0.08512596
-4.1157155	childish	-0.08512596
-3.8351657	bow	-0.085126
-4.1157155	unharmd	-0.08512596
-3.9630654	siege	-0.20159672
-4.1157155	terms	-0.08512596
-4.1157155	bide	-0.08512596
-3.686661	th	-0.08512596
-3.8351657	encounter	-0.085126
-4.1157155	assailing	-0.08512596
-3.9630654	ope	-0.08512596
-4.1157155	lap	-0.08512596
-4.1157155	saintseducing	-0.08512596
-3.576202	gold	-0.08512596
-3.249279	rich	-0.1717242
-3.4150896	only	-0.08512596
-3.1659286	poor	-0.08512596
-3.8351657	dies	-0.085126
-3.9630654	store	-0.08512596
-3.8351657	sworn	-0.085126
-4.1157155	chaste	-0.08512596
-4.1157155	sparing	-0.08512596
-4.1157155	huge	-0.08512596
-3.8351657	waste	-0.085126
-4.1157155	starvd	-0.08512596
-4.1157155	severity	-0.08512596
-4.1157155	cuts	-0.08512596
-4.1157155	posterity	-0.08512596
-3.576202	wise	-0.22029603
-3.686661	wisely	-0.08512596
-3.9630654	merit	-0.08512596
-3.9630654	bliss	-0.08512596
-3.8351657	making	-0.085126
-3.9630654	despair	-0.20159672
-3.686661	forsworn	-0.08512596
-3.8351657	vow	-0.085126
-2.7707174	dead	-0.26365176
-3.9630654	ruld	-0.15920661
-3.4150896	forget	-0.23828211
-3.1659286	think	-0.12854752
-3.8351657	teach	-0.15920661
-3.9630654	giving	-0.08512596
-3.8351657	liberty	-0.15920661
-3.2978384	unto	-0.10844315
-3.9630654	examine	-0.08512596
-3.8351657	beauties	-0.085126
-3.576202	way	-0.11534177
-3.686661	hers	-0.08512596
-4.1157155	exquisite	-0.08512596
-3.9630654	question	-0.08512596
-4.1157155	masks	-0.08512596
-3.249279	kiss	-0.14747328
-3.576202	ladies	-0.08512596
-3.9630654	brows	-0.08512596
-4.1157155	puts	-0.08512596
-3.576202	hide	-0.16456644
-4.1157155	strucken	-0.08512596
-3.686661	blind	-0.08512596
-3.096028	cannot	-0.09601505
-3.8351657	precious	-0.085126
-4.1157155	treasure	-0.08512596
-3.9630654	eyesight	-0.08512596
-3.4150896	mistress	-0.18886596
-3.9630654	passing	-0.20159672
-3.8351657	note	-0.08512596
-3.576202	read	-0.12058866
-4.1157155	passd	-0.08512596
-3.8351657	canst	-0.12804241
-4.1157155	doctrine	-0.08512596
-3.035834	die	-0.28074485
-3.9630654	debt	-0.20159672
-3.352519	bound	-0.11144785
-4.1157155	penalty	-0.08512596
-3.8351657	hard	-0.085126
-3.576202	honourable	-0.08512596
-4.1157155	reckoning	-0.08512596
-3.9630654	pity	-0.08512596
-4.1157155	livd	-0.08512596
-4.1157155	odds	-0.08512596
-3.2056074	lord	-0.16372854
-3.8351657	suit	-0.15920661
-4.1157155	saying	-0.08512596
-3.2056074	oer	-0.16309811
-3.352519	said	-0.12058866
-3.2978384	child	-0.2008867
-4.1157155	stranger	-0.08512596
-3.576202	world	-0.12872808
-3.686661	change	-0.08512596
-3.686661	fourteen	-0.12804241
-3.249279	years	-0.14142068
-3.9630654	summers	-0.08512596
-4.1157155	wither	-0.08512596
-3.9630654	pride	-0.08512596
-4.1157155	ripe	-0.08512596
-3.686661	bride	-0.26186562
-4.1157155	younger	-0.08512596
-2.6631117	than	-0.16874047
-3.9630654	mothers	-0.08512596
-4.1157155	marrd	-0.08512596
-3.2056074	earth	-0.16901329
-4.1157155	swallowed	-0.08512596
-4.1157155	hopes	-0.08512596
-4.1157155	hopeful	-0.08512596
-2.9358597	lady	-0.2150827
-3.8351657	woo	-0.085126
-2.9829764	paris	-0.19238167
-3.2978384	get	-0.217123
-3.576202	consent	-0.12804241
-4.1157155	agree	-0.08512596
-3.249279	within	-0.1688034
-4.1157155	scope	-0.08512596
-3.9630654	choice	-0.08512596
-3.096028	lies	-0.10844315
-4.1157155	according	-0.08512596
-3.576202	voice	-0.08512596
-4.1157155	accustomd	-0.08512596
-3.488217	feast	-0.12058866
-4.1157155	whereto	-0.08512596
-4.1157155	invited	-0.08512596
-4.1157155	guest	-0.08512596
-3.686661	welcome	-0.11534177
-3.9630654	number	-0.08512596
-3.488217	behold	-0.14781812
-4.1157155	earthtreading	-0.08512596
-3.4150896	stars	-0.08512596
-3.488217	dark	-0.11534177
-3.0086014	heaven	-0.13475692
-3.4150896	comfort	-0.10844315
-3.9630654	lusty	-0.08512596
-4.1157155	apparelld	-0.08512596
-4.1157155	april	-0.08512596
-3.9630654	heel	-0.08512596
-4.1157155	limping	-0.08512596
-4.1157155	winter	-0.08512596
-4.1157155	treads	-0.08512596
-3.249279	even	-0.14476329
-3.8351657	delight	-0.085126
-4.1157155	female	-0.08512596
-4.1157155	buds	-0.08512596
-4.1157155	inherit	-0.08512596
-2.7135904	like	-0.23493168
-3.249279	though	-0.08512593
-4.1157155	reckning	-0.08512596
-3.1295736	none	-0.26158765
-3.8351657	sirrah	-0.085126
-3.9630654	trudge	-0.08512596
-3.352519	through	-0.13946854
-2.9829764	find	-0.15940042
-4.1157155	persons	-0.08512596
-3.8351657	names	-0.08512596
-3.686661	written	-0.08512596
-4.1157155	shoemaker	-0.08512596
-4.1157155	meddle	-0.08512596
-4.1157155	yard	-0.08512596
-3.9630654	tailor	-0.08512596
-3.576202	last	-0.11144785
-4.1157155	fisher	-0.08512596
-4.1157155	pencil	-0.08512596
-4.1157155	painter	-0.08512596
-4.1157155	nets	-0.08512596
-3.9630654	sent	-0.08512596
-3.488217	writ	-0.11534177
-3.2056074	never	-0.098087505
-4.1157155	writing	-0.08512596
-3.9630654	person	-0.08512596
-3.9630654	learned	-0.08512596
-4.1157155	burns	-0.08512596
-3.8351657	anothers	-0.085126
-3.9630654	burning	-0.08512596
-4.1157155	lessoned	-0.08512596
-4.1157155	anguish	-0.08512596
-4.1157155	giddy	-0.08512596
-4.1157155	holp	-0.08512596
-3.9630654	backward	-0.08512596
-3.9630654	turning	-0.08512596
-3.4150896	desperate	-0.08512596
-4.1157155	cures	-0.08512596
-4.1157155	languish	-0.08512596
-3.9630654	infection	-0.08512596
-3.035834	eye	-0.1205887
-4.1157155	rank	-0.08512596
-3.2056074	poison	-0.11534177
-4.1157155	plantain	-0.08512596
-4.1157155	leaf	-0.08512596
-3.9630654	excellent	-0.08512596
-3.8351657	pray	-0.11144785
-4.1157155	broken	-0.08512596
-4.1157155	shin	-0.08512596
-3.352519	mad	-0.20074481
-3.9630654	madman	-0.08512596
-3.686661	shut	-0.08512596
-3.9630654	prison	-0.08512596
-4.1157155	kept	-0.08512596
-3.8351657	food	-0.085126
-4.1157155	whippd	-0.08512596
-4.1157155	tormented	-0.08512596
-4.1157155	godden	-0.08512596
-3.686661	fellow	-0.13946854
-3.2056074	god	-0.119113125
-4.1157155	gi	-0.08512596
-4.1157155	goden	-0.08512596
-3.4150896	fortune	-0.17720135
-3.9630654	misery	-0.08512596
-4.1157155	perhaps	-0.08512596
-3.4150896	book	-0.2148707
-3.686661	letters	-0.12058866
-4.1157155	language	-0.08512596
-3.2978384	ye	-0.10410951
-4.1157155	honestly	-0.08512596
-3.488217	merry	-0.11534177
-4.1157155	reads	-0.08512596
-3.8351657	signior	-0.08512596
-4.1157155	martino	-0.08512596
-3.9630654	daughters	-0.08512596
-3.488217	county	-0.2131169
-4.1157155	anselmo	-0.08512596
-3.9630654	beauteous	-0.08512596
-4.1157155	sisters	-0.08512596
-4.1157155	widow	-0.08512596
-4.1157155	vitruvio	-0.08512596
-4.1157155	placentio	-0.08512596
-3.9630654	lovely	-0.08512596
-4.1157155	nieces	-0.08512596
-3.1659286	mercutio	-0.1908004
-3.576202	brother	-0.08512596
-4.1157155	valentine	-0.08512596
-4.1157155	niece	-0.08512596
-3.4150896	rosaline	-0.16456644
-4.1157155	livia	-0.08512596
-4.1157155	valentio	-0.08512596
-4.1157155	lucio	-0.08512596
-4.1157155	lively	-0.08512596
-4.1157155	helena	-0.08512596
-4.1157155	assembly	-0.08512596
-4.1157155	whither	-0.08512596
-3.686661	supper	-0.08512596
-3.4150896	indeed	-0.17720135
-3.8351657	askd	-0.15920661
-4.1157155	asking	-0.08512596
-3.686661	master	-0.08512596
-3.4150896	great	-0.08512596
-4.1157155	crush	-0.08512596
-4.1157155	cup	-0.08512596
-4.1157155	wine	-0.08512596
-3.9630654	same	-0.09997114
-4.1157155	sups	-0.08512596
-3.576202	whom	-0.08512596
-4.1157155	lovst	-0.08512596
-4.1157155	admired	-0.08512596
-3.686661	thither	-0.26186562
-4.1157155	unattainted	-0.08512596
-3.8351657	compare	-0.085126
-3.064889	face	-0.26389775
-4.1157155	swan	-0.08512596
-3.9630654	crow	-0.08512596
-4.1157155	devout	-0.08512596
-4.1157155	religion	-0.08512596
-4.1157155	maintains	-0.08512596
-4.1157155	falsehood	-0.08512596
-4.1157155	fires	-0.08512596
-3.9630654	often	-0.08512596
-4.1157155	drownd	-0.08512596
-4.1157155	transparent	-0.08512596
-4.1157155	heretics	-0.08512596
-3.9630654	burnt	-0.08512596
-4.1157155	liars	-0.08512596
-3.9630654	fairer	-0.08512596
-4.1157155	allseeing	-0.08512596
-3.249279	neer	-0.12804241
-3.686661	match	-0.08512596
-3.249279	since	-0.10605427
-4.1157155	begun	-0.08512596
-3.686661	herself	-0.12804241
-4.1157155	poisd	-0.08512596
-4.1157155	crystal	-0.08512596
-4.1157155	scales	-0.08512596
-4.1157155	weighd	-0.08512596
-3.488217	ladys	-0.08512596
-3.249279	against	-0.10605427
-4.1157155	shining	-0.08512596
-4.1157155	scant	-0.08512596
-3.9630654	seems	-0.085126
-3.352519	best	-0.10605427
-3.2978384	sight	-0.28634578
-4.1157155	rejoice	-0.08512596
-4.1157155	splendour	-0.08512596
-2.8365135	nurse	-0.23855373
-3.686661	wheres	-0.12058866
-3.249279	daughter	-0.21397133
-4.1157155	maidenhead	-0.08512596
-3.9630654	twelve	-0.08512596
-3.9630654	year	-0.085126
-4.1157155	bade	-0.08512596
-3.686661	lamb	-0.4663751
-4.1157155	ladybird	-0.08512596
-3.8351657	forbid	-0.085126
-3.488217	girl	-0.19464083
-2.7412152	juliet	-0.25720805
-3.4150896	calls	-0.12804241
-3.4150896	mother	-0.22940294
-3.686661	matter	-0.12804241
-3.686661	awhile	-0.22029603
-4.1157155	remembred	-0.08512596
-4.1157155	thous	-0.08512596
-4.1157155	knowest	-0.08512596
-3.488217	age	-0.19464083
-3.2978384	faith	-0.14089927
-4.1157155	teeth	-0.08512596
-4.1157155	teen	-0.08512596
-4.1157155	spoken	-0.08512596
-4.1157155	four	-0.08512596
-4.1157155	lammastide	-0.08512596
-4.1157155	fortnight	-0.08512596
-3.9630654	odd	-0.08512596
-3.2056074	days	-0.17920923
-3.9630654	lammas	-0.20159672
-4.1157155	eve	-0.08512596
-3.8351657	susan	-0.085126
-4.1157155	christian	-0.08512596
-3.9630654	souls	-0.08512596
-4.1157155	earthquake	-0.08512596
-3.9630654	eleven	-0.20159672
-4.1157155	weand	-0.08512596
-3.1295736	had	-0.09731424
-3.576202	laid	-0.08512596
-3.9630654	wormwood	-0.08512596
-3.9630654	dug	-0.085126
-3.9630654	sitting	-0.20159672
-3.488217	under	-0.08512596
-4.1157155	dovehouse	-0.08512596
-3.686661	mantua	-0.2131169
-3.8351657	brain	-0.085126
-3.8351657	taste	-0.085126
-4.1157155	nipple	-0.08512596
-4.1157155	felt	-0.08512596
-3.8351657	bitter	-0.085126
-3.576202	fool	-0.12058866
-4.1157155	tetchy	-0.08512596
-3.2056074	fall	-0.11775554
-3.9630654	shake	-0.08512596
-3.686661	quoth	-0.12804241
-3.8351657	twas	-0.085126
-3.352519	need	-0.11144785
-4.1157155	trow	-0.08512596
-4.1157155	highlone	-0.08512596
-4.1157155	rood	-0.08512596
-4.1157155	waddled	-0.08512596
-3.9630654	broke	-0.08512596
-3.686661	brow	-0.08512596
-3.4150896	husband	-0.12396087
-3.352519	soul	-0.13227065
-3.488217	took	-0.085126
-4.1157155	yea	-0.085126
-4.1157155	jule	-0.08512596
-4.1157155	holidam	-0.08512596
-3.8351657	wretch	-0.085126
-3.8351657	left	-0.08512596
-3.9630654	crying	-0.20159672
-3.488217	jest	-0.12058866
-3.9630654	warrant	-0.10605427
-3.686661	thousand	-0.22029603
-4.1157155	yeas	-0.08512596
-4.1157155	stinted	-0.08512596
-3.4150896	enough	-0.11144785
-3.9630654	choose	-0.08512596
-3.8351657	bad	-0.085126
-4.1157155	bump	-0.08512596
-3.9630654	big	-0.20159672
-4.1157155	cockrels	-0.08512596
-3.9630654	stone	-0.08512596
-4.1157155	perilous	-0.08512596
-3.8351657	knock	-0.15920661
-4.1157155	cried	-0.08512596
-3.9630654	bitterly	-0.08512596
-4.1157155	fallst	-0.08512596
-4.1157155	comest	-0.08512596
-4.1157155	stint	-0.08512596
-3.488217	done	-0.15498732
-3.576202	grace	-0.12804241
-3.9630654	wast	-0.085126
-4.1157155	prettiest	-0.08512596
-4.1157155	babe	-0.08512596
-3.9630654	eer	-0.085126
-4.1157155	nursd	-0.08512596
-3.096028	married	-0.1205887
-3.488217	wish	-0.12058866
-3.1659286	very	-0.11913638
-4.1157155	theme	-0.08512596
-3.686661	stands	-0.08512596
-3.9630654	disposition	-0.08512596
-3.686661	honour	-0.08512596
-3.352519	dream	-0.10605427
-3.9630654	suckd	-0.08512596
-3.686661	wisdom	-0.08512596
-4.1157155	teat	-0.08512596
-3.2978384	marriage	-0.10410951
-4.1157155	esteem	-0.08512596
-3.686661	already	-0.08512596
-3.686661	count	-0.13946854
-3.488217	thus	-0.08512596
-3.686661	brief	-0.08512596
-4.1157155	seeks	-0.08512596
-4.1157155	wax	-0.08512596
-3.9630654	summer	-0.08512596
-3.352519	flower	-0.18250535
-3.2978384	gentleman	-0.1688034
-3.9630654	volume	-0.08512596
-3.9630654	beautys	-0.08512596
-4.1157155	pen	-0.08512596
-3.2978384	every	-0.08512596
-4.1157155	lineament	-0.08512596
-3.2978384	another	-0.08512596
-3.8351657	lends	-0.085126
-3.8351657	content	-0.085126
-4.1157155	obscurd	-0.08512596
-4.1157155	margent	-0.08512596
-4.1157155	unbound	-0.08512596
-3.8351657	lover	-0.13946854
-4.1157155	beautify	-0.08512596
-4.1157155	lacks	-0.08512596
-3.9630654	cover	-0.08512596
-4.1157155	manys	-0.08512596
-3.9630654	share	-0.08512596
-4.1157155	glory	-0.08512596
-4.1157155	clasps	-0.08512596
-3.9630654	story	-0.08512596
-4.1157155	possess	-0.08512596
-3.576202	yourself	-0.12804241
-3.686661	less	-0.08512596
-3.9630654	bigger	-0.08512596
-4.1157155	briefly	-0.08512596
-4.1157155	looking	-0.08512596
-4.1157155	liking	-0.08512596
-4.1157155	endart	-0.08512596
-3.576202	gives	-0.08512596
-3.576202	strength	-0.08512596
-3.8351657	fly	-0.085126
-3.8351657	guests	-0.085126
-3.9630654	servd	-0.08512596
-3.8351657	calld	-0.085126
-4.1157155	cursd	-0.08512596
-4.1157155	pantry	-0.08512596
-4.1157155	everything	-0.08512596
-4.1157155	extremity	-0.08512596
-4.1157155	wait	-0.08512596
-3.9630654	beseech	-0.17566954
-3.488217	follow	-0.12058866
-3.2978384	straight	-0.14747328
-3.9630654	stays	-0.08512596
-3.576202	nights	-0.085126
-4.1157155	speech	-0.08512596
-3.488217	spoke	-0.085126
-3.576202	excuse	-0.17566954
-4.1157155	apology	-0.08512596
-3.8351657	date	-0.085126
-4.1157155	prolixity	-0.08512596
-3.8351657	cupid	-0.085126
-4.1157155	hoodwinkd	-0.08512596
-4.1157155	scarf	-0.08512596
-4.1157155	bearing	-0.08512596
-4.1157155	tartars	-0.08512596
-4.1157155	painted	-0.08512596
-4.1157155	lath	-0.08512596
-4.1157155	scaring	-0.08512596
-4.1157155	crowkeeper	-0.08512596
-4.1157155	withoutbook	-0.08512596
-4.1157155	prologue	-0.08512596
-4.1157155	faintly	-0.08512596
-3.686661	after	-0.13946854
-4.1157155	prompter	-0.08512596
-3.9630654	entrance	-0.08512596
-3.576202	measure	-0.085126
-3.1659286	gone	-0.19448204
-3.686661	torch	-0.08512596
-4.1157155	ambling	-0.08512596
-3.8351657	dance	-0.3414364
-3.8351657	believe	-0.13946854
-3.9630654	dancing	-0.08512596
-3.9630654	shoes	-0.20159672
-4.1157155	nimble	-0.08512596
-4.1157155	soles	-0.08512596
-4.1157155	stakes	-0.08512596
-4.1157155	borrow	-0.08512596
-3.686661	wings	-0.08512596
-3.9630654	soar	-0.20159672
-3.4150896	above	-0.14781812
-4.1157155	sore	-0.08512596
-4.1157155	enpierced	-0.08512596
-4.1157155	shaft	-0.08512596
-4.1157155	feathers	-0.08512596
-4.1157155	pitch	-0.08512596
-3.9630654	dull	-0.08512596
-3.1659286	woe	-0.21397133
-3.8351657	burthen	-0.085126
-3.9630654	sink	-0.08512596
-3.576202	tender	-0.085126
-3.2056074	thing	-0.16309811
-3.576202	rude	-0.08512596
-4.1157155	boistrous	-0.08512596
-4.1157155	pricks	-0.08512596
-4.1157155	thorn	-0.08512596
-3.9630654	prick	-0.08512596
-4.1157155	pricking	-0.08512596
-4.1157155	visage	-0.08512596
-4.1157155	visor	-0.085126
-3.488217	care	-0.085126
-4.1157155	curious	-0.08512596
-4.1157155	quote	-0.08512596
-4.1157155	deformities	-0.08512596
-4.1157155	beetle	-0.08512596
-3.8351657	blush	-0.085126
-3.9630654	wantons	-0.08512596
-4.1157155	tickle	-0.08512596
-4.1157155	senseless	-0.08512596
-3.9630654	rushes	-0.08512596
-4.1157155	heels	-0.08512596
-4.1157155	proverbd	-0.08512596
-4.1157155	grandsire	-0.08512596
-4.1157155	phrase	-0.08512596
-4.1157155	candleholder	-0.08512596
-4.1157155	game	-0.08512596
-4.1157155	duns	-0.08512596
-3.8351657	mouse	-0.085126
-4.1157155	constables	-0.08512596
-4.1157155	dun	-0.08512596
-4.1157155	mire	-0.08512596
-4.1157155	sirreverence	-0.08512596
-4.1157155	wherein	-0.08512596
-4.1157155	stickst	-0.08512596
-3.8351657	burn	-0.085126
-3.686661	thats	-0.11144785
-3.8351657	delay	-0.085126
-4.1157155	lights	-0.08512596
-3.9630654	vain	-0.085126
-4.1157155	lamps	-0.08512596
-3.8351657	meaning	-0.15920661
-3.9630654	sits	-0.08512596
-3.686661	five	-0.08512596
-3.686661	times	-0.08512596
-3.686661	wits	-0.12804241
-3.686661	going	-0.13946854
-4.1157155	masque	-0.08512596
-3.576202	ask	-0.08512596
-4.1157155	dreamt	-0.08512596
-3.096028	tonight	-0.4375677
-4.1157155	dreamers	-0.08512596
-3.576202	asleep	-0.08512596
-3.488217	things	-0.11144785
-4.1157155	queen	-0.08512596
-3.8351657	mab	-0.085126
-4.1157155	fairies	-0.08512596
-4.1157155	midwife	-0.08512596
-3.686661	shape	-0.08512596
-4.1157155	agate	-0.08512596
-4.1157155	forefinger	-0.08512596
-4.1157155	alderman	-0.08512596
-4.1157155	team	-0.08512596
-3.352519	little	-0.1011344
-4.1157155	atomies	-0.08512596
-4.1157155	athwart	-0.08512596
-3.4150896	mens	-0.08512596
-4.1157155	noses	-0.08512596
-4.1157155	wagon	-0.08512596
-4.1157155	spokes	-0.08512596
-4.1157155	spinners	-0.08512596
-4.1157155	legs	-0.08512596
-4.1157155	grasshoppers	-0.08512596
-4.1157155	traces	-0.08512596
-4.1157155	smallest	-0.08512596
-4.1157155	spiders	-0.08512596
-4.1157155	web	-0.08512596
-4.1157155	collars	-0.08512596
-4.1157155	moonshines	-0.08512596
-4.1157155	watry	-0.08512596
-3.9630654	beams	-0.08512596
-3.9630654	whip	-0.08512596
-4.1157155	crickets	-0.08512596
-3.9630654	bone	-0.08512596
-4.1157155	lash	-0.08512596
-4.1157155	film	-0.08512596
-3.9630654	wagoner	-0.08512596
-3.8351657	small	-0.085126
-4.1157155	greycoated	-0.08512596
-4.1157155	gnat	-0.08512596
-3.576202	half	-0.12804241
-4.1157155	round	-0.08512596
-4.1157155	prickd	-0.08512596
-4.1157155	lazy	-0.08512596
-3.9630654	finger	-0.08512596
-4.1157155	chariot	-0.08512596
-3.686661	empty	-0.08512596
-4.1157155	hazelnut	-0.08512596
-4.1157155	joiner	-0.08512596
-4.1157155	squirrel	-0.08512596
-4.1157155	grub	-0.08512596
-4.1157155	coachmakers	-0.08512596
-3.576202	state	-0.08512596
-4.1157155	gallops	-0.08512596
-3.9630654	brains	-0.08512596
-3.9630654	courtiers	-0.08512596
-3.8351657	knees	-0.085126
-4.1157155	cursies	-0.08512596
-4.1157155	lawyers	-0.08512596
-3.576202	fingers	-0.12804241
-4.1157155	fees	-0.08512596
-3.249279	lips	-0.13946854
-3.8351657	kisses	-0.085126
-3.8351657	oft	-0.08512596
-4.1157155	angry	-0.08512596
-4.1157155	blisters	-0.08512596
-4.1157155	plagues	-0.08512596
-3.2978384	because	-0.10844315
-4.1157155	breaths	-0.08512596
-4.1157155	sweetmeats	-0.08512596
-4.1157155	tainted	-0.08512596
-3.9630654	sometime	-0.08512596
-3.9630654	nose	-0.08512596
-3.8351657	dreams	-0.085126
-4.1157155	smelling	-0.08512596
-4.1157155	tithepigs	-0.08512596
-4.1157155	tail	-0.08512596
-4.1157155	tickling	-0.08512596
-4.1157155	parsons	-0.08512596
-4.1157155	benefice	-0.08512596
-3.8351657	sometimes	-0.085126
-4.1157155	driveth	-0.08512596
-3.9630654	soldiers	-0.08512596
-4.1157155	cutting	-0.08512596
-4.1157155	foreign	-0.08512596
-4.1157155	throats	-0.08512596
-4.1157155	breaches	-0.08512596
-4.1157155	ambuscadoes	-0.08512596
-4.1157155	spanish	-0.08512596
-4.1157155	blades	-0.08512596
-4.1157155	healths	-0.08512596
-4.1157155	fadom	-0.08512596
-3.686661	anon	-0.12058866
-4.1157155	drums	-0.08512596
-3.576202	ear	-0.08512596
-3.9630654	starts	-0.08512596
-3.9630654	wakes	-0.20159672
-4.1157155	frighted	-0.08512596
-4.1157155	swears	-0.08512596
-4.1157155	prayer	-0.08512596
-3.9630654	sleeps	-0.08512596
-4.1157155	plats	-0.08512596
-4.1157155	manes	-0.08512596
-3.9630654	horses	-0.08512596
-4.1157155	bakes	-0.08512596
-4.1157155	elflocks	-0.08512596
-3.686661	foul	-0.08512596
-4.1157155	sluttish	-0.08512596
-4.1157155	hairs	-0.08512596
-4.1157155	untangled	-0.08512596
-4.1157155	misfortune	-0.08512596
-4.1157155	bodes	-0.08512596
-4.1157155	hag	-0.08512596
-4.1157155	backs	-0.08512596
-3.9630654	presses	-0.08512596
-4.1157155	learns	-0.08512596
-4.1157155	carriage	-0.08512596
-4.1157155	talkst	-0.08512596
-3.9630654	children	-0.20159672
-4.1157155	idle	-0.08512596
-4.1157155	begot	-0.08512596
-4.1157155	fantasy	-0.08512596
-4.1157155	thin	-0.08512596
-3.8351657	substance	-0.085126
-3.8351657	inconstant	-0.085126
-3.8351657	wind	-0.085126
-4.1157155	wooes	-0.08512596
-4.1157155	frozen	-0.08512596
-3.4150896	bosom	-0.14781812
-4.1157155	north	-0.08512596
-4.1157155	angerd	-0.08512596
-4.1157155	puffs	-0.08512596
-3.9630654	thence	-0.08512596
-4.1157155	dewdropping	-0.08512596
-4.1157155	south	-0.08512596
-4.1157155	ourselves	-0.08512596
-3.4150896	late	-0.14747328
-4.1157155	misgives	-0.08512596
-4.1157155	consequence	-0.08512596
-4.1157155	hanging	-0.08512596
-4.1157155	revels	-0.08512596
-4.1157155	expire	-0.08512596
-3.9630654	term	-0.08512596
-3.9630654	despised	-0.08512596
-3.8351657	closd	-0.3414364
-3.352519	vile	-0.08512596
-3.576202	untimely	-0.12804241
-4.1157155	steerage	-0.08512596
-3.8351657	course	-0.08512596
-4.1157155	direct	-0.08512596
-3.9630654	sail	-0.15920661
-3.488217	gentlemen	-0.23519328
-4.1157155	drum	-0.08512596
-3.9630654	potpan	-0.08512596
-3.9630654	helps	-0.20159672
-4.1157155	shift	-0.08512596
-4.1157155	trencher	-0.08512596
-4.1157155	scrape	-0.08512596
-3.9630654	manners	-0.08512596
-4.1157155	unwashd	-0.08512596
-4.1157155	joinstools	-0.08512596
-4.1157155	courtcubbert	-0.08512596
-4.1157155	plate	-0.08512596
-3.8351657	save	-0.085126
-4.1157155	marchpane	-0.08512596
-4.1157155	porter	-0.08512596
-4.1157155	grindstone	-0.08512596
-4.1157155	nell	-0.08512596
-4.1157155	anthony	-0.08512596
-3.249279	boy	-0.33210328
-3.576202	ready	-0.17566954
-3.9630654	lookd	-0.08512596
-4.1157155	cheerly	-0.08512596
-4.1157155	boys	-0.08512596
-4.1157155	brisk	-0.08512596
-3.8351657	longer	-0.08512596
-4.1157155	liver	-0.08512596
-4.1157155	toes	-0.08512596
-4.1157155	unplagud	-0.08512596
-3.9630654	corns	-0.08512596
-4.1157155	bout	-0.08512596
-3.686661	ha	-0.19464083
-4.1157155	mistresses	-0.08512596
-3.686661	deny	-0.13946854
-4.1157155	dainty	-0.08512596
-3.488217	swear	-0.10844315
-3.686661	worn	-0.08512596
-4.1157155	whispering	-0.08512596
-3.576202	tale	-0.085126
-3.686661	musicians	-0.085126
-3.352519	play	-0.11144785
-4.1157155	hall	-0.08512596
-3.9630654	room	-0.08512596
-4.1157155	girls	-0.08512596
-4.1157155	knaves	-0.08512596
-4.1157155	tables	-0.08512596
-3.9630654	grown	-0.085126
-3.576202	hot	-0.12058866
-4.1157155	unlookdfor	-0.08512596
-3.9630654	sport	-0.08512596
-3.488217	sit	-0.08512596
-3.576202	past	-0.08512596
-3.576202	ist	-0.08512596
-3.9630654	mask	-0.08512596
-4.1157155	byr	-0.08512596
-3.9630654	thirty	-0.08512596
-4.1157155	nuptial	-0.08512596
-4.1157155	lucentio	-0.08512596
-4.1157155	pentecost	-0.08512596
-4.1157155	fiveandtwenty	-0.08512596
-4.1157155	maskd	-0.08512596
-4.1157155	elder	-0.08512596
-4.1157155	ward	-0.08512596
-3.9630654	ago	-0.20159672
-4.1157155	enrich	-0.08512596
-2.9358597	hand	-0.21003218
-3.576202	yonder	-0.085126
-3.9630654	knight	-0.08512596
-3.9630654	torches	-0.08512596
-3.9630654	hangs	-0.20159672
-3.576202	cheek	-0.085126
-4.1157155	jewel	-0.08512596
-4.1157155	ethiops	-0.08512596
-3.1295736	use	-0.11775554
-2.9358597	dear	-0.14351694
-4.1157155	snowy	-0.08512596
-3.9630654	dove	-0.08512596
-4.1157155	trooping	-0.08512596
-4.1157155	crows	-0.08512596
-3.8351657	fellows	-0.085126
-3.686661	watch	-0.08512596
-4.1157155	touching	-0.08512596
-3.576202	blessed	-0.08512596
-4.1157155	forswear	-0.08512596
-3.488217	fetch	-0.11534177
-3.9630654	rapier	-0.08512596
-3.8351657	dares	-0.08512596
-3.352519	hither	-0.2008867
-4.1157155	coverd	-0.08512596
-3.9630654	antic	-0.08512596
-4.1157155	fleer	-0.08512596
-4.1157155	solemnity	-0.08512596
-4.1157155	stock	-0.08512596
-4.1157155	kin	-0.08512596
-3.249279	sin	-0.17920923
-3.2978384	kinsman	-0.2131169
-3.686661	wherefore	-0.08512596
-3.9630654	storm	-0.08512596
-3.096028	alone	-0.2936013
-3.9630654	bears	-0.08512596
-4.1157155	portly	-0.08512596
-3.576202	truth	-0.08512596
-3.9630654	brags	-0.20159672
-3.9630654	virtuous	-0.085126
-4.1157155	wellgovernd	-0.08512596
-3.488217	youth	-0.085126
-3.9630654	wealth	-0.08512596
-3.686661	town	-0.08512596
-4.1157155	disparagement	-0.08512596
-3.9630654	respect	-0.08512596
-3.9630654	presence	-0.08512596
-4.1157155	frowns	-0.08512596
-3.9630654	illbeseeming	-0.08512596
-4.1157155	semblance	-0.08512596
-4.1157155	fits	-0.08512596
-4.1157155	endure	-0.08512596
-4.1157155	endurd	-0.08512596
-4.1157155	goodman	-0.08512596
-3.9630654	youll	-0.13946854
-4.1157155	cockahoop	-0.08512596
-3.2978384	shame	-0.14747328
-3.9630654	saucy	-0.08512596
-4.1157155	trick	-0.08512596
-3.9630654	chance	-0.08512596
-4.1157155	scathe	-0.08512596
-3.8351657	contrary	-0.15920661
-4.1157155	princox	-0.08512596
-3.686661	patience	-0.13946854
-3.9630654	perforce	-0.08512596
-4.1157155	wilful	-0.08512596
-4.1157155	meeting	-0.08512596
-3.9630654	tremble	-0.08512596
-3.9630654	different	-0.08512596
-3.9630654	greeting	-0.20159672
-3.8351657	withdraw	-0.085126
-4.1157155	intrusion	-0.08512596
-3.8351657	seeming	-0.085126
-4.1157155	convert	-0.08512596
-4.1157155	bittrest	-0.08512596
-4.1157155	profane	-0.08512596
-4.1157155	unworthiest	-0.08512596
-3.064889	holy	-0.1262702
-4.1157155	shrine	-0.08512596
-3.576202	fine	-0.12804241
-4.1157155	blushing	-0.08512596
-3.9630654	pilgrims	-0.08512596
-3.9630654	smooth	-0.08512596
-3.8351657	touch	-0.085126
-3.9630654	pilgrim	-0.08512596
-4.1157155	mannerly	-0.08512596
-3.9630654	devotion	-0.08512596
-3.8351657	saints	-0.085126
-3.9630654	palm	-0.08512596
-4.1157155	palmers	-0.08512596
-4.1157155	prayr	-0.08512596
-3.352519	saint	-0.18250535
-3.9630654	grant	-0.08512596
-3.686661	lest	-0.08512596
-3.8351657	prayers	-0.085126
-3.686661	sake	-0.08512596
-3.9630654	effect	-0.08512596
-4.1157155	trespass	-0.08512596
-4.1157155	sweetly	-0.08512596
-3.8351657	craves	-0.085126
-4.1157155	bachelor	-0.08512596
-3.8351657	talkd	-0.085126
-4.1157155	chinks	-0.08512596
-3.9630654	account	-0.08512596
-4.1157155	unrest	-0.08512596
-3.576202	prepare	-0.12804241
-4.1157155	trifling	-0.08512596
-3.9630654	foolish	-0.08512596
-4.1157155	banquet	-0.08512596
-4.1157155	een	-0.08512596
-3.8351657	thank	-0.085126
-3.686661	honest	-0.12058866
-4.1157155	fay	-0.08512596
-4.1157155	waxes	-0.08512596
-3.686661	yond	-0.08512596
-3.8351657	heir	-0.08512596
-4.1157155	tiberio	-0.08512596
-4.1157155	whats	-0.085126
-3.8351657	door	-0.15920661
-4.1157155	petruchio	-0.08512596
-4.1157155	follows	-0.08512596
-3.2056074	name	-0.25090542
-3.686661	wedding	-0.13946854
-3.488217	enemy	-0.29947728
-4.1157155	sprung	-0.08512596
-4.1157155	unknown	-0.08512596
-4.1157155	prodigious	-0.08512596
-3.686661	birth	-0.08512596
-3.9630654	loathed	-0.08512596
-3.9630654	rhyme	-0.08512596
-3.9630654	learnt	-0.08512596
-4.1157155	dancd	-0.08512596
-4.1157155	strangers	-0.08512596
-3.9630654	desire	-0.08512596
-4.1157155	deathbed	-0.08512596
-3.9630654	affection	-0.08512596
-4.1157155	gapes	-0.08512596
-4.1157155	groand	-0.08512596
-3.9630654	matchd	-0.08512596
-4.1157155	belovd	-0.08512596
-4.1157155	bewitched	-0.08512596
-4.1157155	charm	-0.08512596
-3.488217	looks	-0.08512596
-4.1157155	complain	-0.08512596
-3.9630654	steal	-0.08512596
-4.1157155	bait	-0.08512596
-4.1157155	hooks	-0.08512596
-3.9630654	held	-0.08512596
-4.1157155	access	-0.08512596
-4.1157155	breathe	-0.08512596
-4.1157155	vows	-0.08512596
-3.488217	meet	-0.11144785
-4.1157155	beloved	-0.08512596
-4.1157155	anywhere	-0.08512596
-3.8351657	passion	-0.15920661
-3.576202	power	-0.08512596
-4.1157155	tempring	-0.08512596
-4.1157155	extremities	-0.08512596
-4.1157155	extreme	-0.08512596
-4.1157155	forward	-0.08512596
-4.1157155	centre	-0.08512596
-3.9630654	stoln	-0.08512596
-3.8351657	ran	-0.085126
-4.1157155	leapt	-0.08512596
-3.9630654	orchard	-0.08512596
-3.8351657	conjure	-0.08512596
-4.1157155	humours	-0.08512596
-3.8351657	appear	-0.085126
-3.8351657	likeness	-0.15920661
-4.1157155	sigh	-0.08512596
-3.9630654	satisfied	-0.13946854
-3.686661	cry	-0.08512596
-3.9630654	pronounce	-0.085126
-4.1157155	gossip	-0.08512596
-3.9630654	venus	-0.08512596
-4.1157155	nickname	-0.08512596
-4.1157155	purblind	-0.08512596
-4.1157155	adam	-0.08512596
-3.8351657	shot	-0.085126
-3.9630654	trim	-0.08512596
-3.9630654	king	-0.08512596
-4.1157155	cophetua	-0.08512596
-4.1157155	beggar	-0.08512596
-4.1157155	heareth	-0.08512596
-4.1157155	stirreth	-0.08512596
-4.1157155	moveth	-0.08512596
-4.1157155	ape	-0.08512596
-4.1157155	rosalines	-0.08512596
-3.352519	high	-0.08512596
-4.1157155	forehead	-0.08512596
-3.9630654	scarlet	-0.08512596
-4.1157155	lip	-0.08512596
-3.9630654	leg	-0.08512596
-4.1157155	quivering	-0.08512596
-4.1157155	thigh	-0.08512596
-3.9630654	demesnes	-0.08512596
-4.1157155	adjacent	-0.08512596
-3.686661	anger	-0.26186562
-4.1157155	twould	-0.08512596
-3.8351657	raise	-0.13946854
-3.686661	spirit	-0.08512596
-4.1157155	circle	-0.08512596
-3.488217	strange	-0.085126
-3.686661	nature	-0.08512596
-4.1157155	letting	-0.08512596
-4.1157155	conjurd	-0.08512596
-4.1157155	invocation	-0.08512596
-3.8351657	hid	-0.085126
-4.1157155	trees	-0.08512596
-4.1157155	consorted	-0.08512596
-4.1157155	humorous	-0.08512596
-4.1157155	befits	-0.08512596
-4.1157155	medlar	-0.08512596
-3.8351657	tree	-0.08512596
-3.576202	kind	-0.19464083
-4.1157155	fruit	-0.08512596
-4.1157155	medlars	-0.08512596
-3.686661	open	-0.08512596
-4.1157155	et	-0.08512596
-4.1157155	cetera	-0.08512596
-4.1157155	poprin	-0.08512596
-4.1157155	pear	-0.08512596
-4.1157155	trucklebed	-0.08512596
-4.1157155	fieldbed	-0.08512596
-4.1157155	breaks	-0.08512596
-3.9630654	arise	-0.085126
-3.352519	kill	-0.12804241
-3.686661	moon	-0.08512596
-3.249279	pale	-0.16309811
-3.9630654	vestal	-0.08512596
-3.9630654	livery	-0.08512596
-3.686661	green	-0.08512596
-3.686661	wear	-0.08512596
-3.9630654	knew	-0.085126
-3.686661	speaks	-0.08512596
-3.8351657	says	-0.08512596
-3.9630654	discourses	-0.08512596
-3.488217	answer	-0.10844315
-3.686661	bold	-0.08512596
-4.1157155	fairest	-0.08512596
-3.8351657	business	-0.085126
-3.9630654	entreat	-0.08512596
-4.1157155	twinkle	-0.08512596
-4.1157155	spheres	-0.08512596
-3.686661	return	-0.13946854
-4.1157155	brightness	-0.08512596
-4.1157155	lamp	-0.08512596
-4.1157155	region	-0.08512596
-4.1157155	stream	-0.08512596
-3.9630654	birds	-0.08512596
-3.9630654	sing	-0.08512596
-4.1157155	leans	-0.08512596
-4.1157155	glove	-0.08512596
-4.1157155	angel	-0.08512596
-4.1157155	glorious	-0.08512596
-4.1157155	winged	-0.08512596
-3.9630654	messenger	-0.08512596
-4.1157155	whiteupturned	-0.08512596
-4.1157155	wondring	-0.08512596
-3.9630654	mortals	-0.08512596
-3.8351657	gaze	-0.15920661
-4.1157155	bestrides	-0.08512596
-4.1157155	lazypacing	-0.08512596
-4.1157155	sails	-0.08512596
-4.1157155	refuse	-0.08512596
-3.488217	thyself	-0.17720135
-3.4150896	arm	-0.08512596
-4.1157155	belonging	-0.08512596
-4.1157155	rose	-0.08512596
-4.1157155	smell	-0.08512596
-4.1157155	retain	-0.08512596
-4.1157155	perfection	-0.08512596
-4.1157155	owes	-0.08512596
-4.1157155	title	-0.08512596
-4.1157155	doff	-0.08512596
-4.1157155	baptizd	-0.08512596
-3.9630654	henceforth	-0.08512596
-4.1157155	bescreend	-0.08512596
-4.1157155	stumblest	-0.08512596
-3.686661	hateful	-0.13946854
-3.576202	tear	-0.12804241
-3.8351657	drunk	-0.085126
-3.8351657	hundred	-0.085126
-3.352519	words	-0.08512596
-3.9630654	tongues	-0.08512596
-4.1157155	utterance	-0.08512596
-3.352519	sound	-0.18886596
-4.1157155	dislike	-0.08512596
-3.9630654	camst	-0.20159672
-3.8351657	walls	-0.085126
-3.9630654	climb	-0.08512596
-4.1157155	considering	-0.08512596
-4.1157155	oerperch	-0.08512596
-3.9630654	stony	-0.08512596
-4.1157155	limits	-0.08512596
-4.1157155	attempt	-0.08512596
-3.488217	murther	-0.085126
-3.8351657	alack	-0.11144785
-4.1157155	peril	-0.08512596
-3.2978384	twenty	-0.10844315
-3.9630654	enmity	-0.20159672
-4.1157155	cloak	-0.08512596
-3.9630654	ended	-0.08512596
-4.1157155	prorogued	-0.08512596
-3.9630654	wanting	-0.08512596
-4.1157155	direction	-0.08512596
-4.1157155	foundst	-0.08512596
-4.1157155	prompt	-0.08512596
-3.9630654	enquire	-0.08512596
-3.686661	lent	-0.08512596
-3.9630654	pilot	-0.08512596
-4.1157155	vast	-0.08512596
-4.1157155	shore	-0.08512596
-3.8351657	washd	-0.085126
-4.1157155	farthest	-0.08512596
-3.9630654	adventure	-0.08512596
-4.1157155	merchandise	-0.08512596
-4.1157155	maiden	-0.08512596
-4.1157155	bepaint	-0.08512596
-3.576202	fain	-0.08512596
-3.8351657	dwell	-0.085126
-3.576202	form	-0.12804241
-4.1157155	compliment	-0.08512596
-4.1157155	swearst	-0.08512596
-4.1157155	mayst	-0.085126
-3.9630654	false	-0.08512596
-4.1157155	perjuries	-0.08512596
-4.1157155	jove	-0.08512596
-4.1157155	laughs	-0.08512596
-4.1157155	faithfully	-0.08512596
-4.1157155	thinkest	-0.08512596
-4.1157155	won	-0.08512596
-4.1157155	perverse	-0.08512596
-3.8351657	fond	-0.085126
-4.1157155	haviour	-0.08512596
-3.576202	trust	-0.12804241
-3.9630654	cunning	-0.08512596
-3.8351657	confess	-0.15920661
-4.1157155	overheardst	-0.08512596
-4.1157155	truelove	-0.08512596
-3.352519	pardon	-0.14747328
-4.1157155	impute	-0.08512596
-4.1157155	yielding	-0.08512596
-4.1157155	discovered	-0.08512596
-4.1157155	tips	-0.08512596
-3.488217	silver	-0.19464083
-4.1157155	fruittree	-0.08512596
-3.9630654	tops	-0.08512596
-4.1157155	monthly	-0.08512596
-4.1157155	changes	-0.08512596
-4.1157155	circled	-0.08512596
-4.1157155	orb	-0.08512596
-3.9630654	likewise	-0.08512596
-4.1157155	variable	-0.08512596
-4.1157155	gracious	-0.08512596
-4.1157155	idolatry	-0.08512596
-4.1157155	although	-0.08512596
-3.1659286	joy	-0.13227065
-4.1157155	contract	-0.08512596
-4.1157155	rash	-0.08512596
-4.1157155	unadvisd	-0.08512596
-3.576202	sudden	-0.08512596
-3.9630654	lightning	-0.085126
-3.8351657	cease	-0.085126
-4.1157155	lightens	-0.08512596
-4.1157155	ripening	-0.08512596
-3.352519	breath	-0.1011344
-4.1157155	flowr	-0.08512596
-3.576202	next	-0.08512596
-4.1157155	repose	-0.08512596
-4.1157155	unsatisfied	-0.08512596
-4.1157155	satisfaction	-0.08512596
-3.8351657	exchange	-0.3414364
-3.8351657	faithful	-0.085126
-3.576202	gave	-0.08512596
-3.686661	didst	-0.12058866
-4.1157155	request	-0.08512596
-3.686661	wouldst	-0.13946854
-3.8351657	purpose	-0.085126
-4.1157155	frank	-0.08512596
-4.1157155	bounty	-0.08512596
-4.1157155	boundless	-0.08512596
-4.1157155	infinite	-0.08512596
-3.686661	adieu	-0.13946854
-4.1157155	afeard	-0.08512596
-4.1157155	flatteringsweet	-0.08512596
-4.1157155	substantial	-0.08512596
-4.1157155	bent	-0.08512596
-3.2978384	send	-0.1560383
-3.1295736	tomorrow	-0.2529483
-4.1157155	procure	-0.08512596
-4.1157155	perform	-0.08512596
-3.9630654	rite	-0.08512596
-3.8351657	fortunes	-0.085126
-4.1157155	throughout	-0.08512596
-4.1157155	meanest	-0.08512596
-3.686661	byandby	-0.12804241
-4.1157155	thrive	-0.08512596
-3.8351657	worse	-0.085126
-3.9630654	want	-0.08512596
-3.8351657	toward	-0.085126
-4.1157155	schoolboys	-0.08512596
-4.1157155	books	-0.08512596
-4.1157155	school	-0.08512596
-3.9630654	hist	-0.20159672
-4.1157155	falconers	-0.08512596
-4.1157155	lure	-0.08512596
-4.1157155	tasselgentle	-0.08512596
-4.1157155	bondage	-0.08512596
-3.9630654	hoarse	-0.08512596
-3.9630654	aloud	-0.08512596
-3.9630654	cave	-0.08512596
-4.1157155	echo	-0.08512596
-3.249279	tongue	-0.08512596
-4.1157155	repetition	-0.08512596
-4.1157155	silversweet	-0.08512596
-4.1157155	softest	-0.08512596
-3.4150896	music	-0.17720135
-4.1157155	attending	-0.08512596
-3.9630654	oclock	-0.08512596
-3.9630654	fail	-0.08512596
-4.1157155	forgot	-0.08512596
-4.1157155	remembring	-0.08512596
-3.488217	company	-0.19464083
-4.1157155	forgetting	-0.08512596
-3.8351657	almost	-0.085126
-3.9630654	bird	-0.08512596
-4.1157155	hop	-0.08512596
-4.1157155	prisoner	-0.08512596
-4.1157155	twisted	-0.08512596
-4.1157155	gyves	-0.08512596
-4.1157155	silk	-0.08512596
-4.1157155	thread	-0.08512596
-4.1157155	plucks	-0.08512596
-4.1157155	lovingjealous	-0.08512596
-4.1157155	cherishing	-0.08512596
-4.1157155	parting	-0.08512596
-3.4150896	sorrow	-0.08512596
-3.9630654	ghostly	-0.13946854
-3.8351657	fathers	-0.13946854
-3.686661	cell	-0.1717242
-3.1295736	help	-0.22559096
-4.1157155	crave	-0.08512596
-3.9630654	hap	-0.20159672
-4.1157155	greyeyd	-0.08512596
-3.8351657	morn	-0.085126
-3.9630654	smiles	-0.08512596
-4.1157155	frowning	-0.08512596
-4.1157155	checkring	-0.08512596
-4.1157155	eastern	-0.08512596
-3.9630654	streaks	-0.08512596
-4.1157155	flecked	-0.08512596
-4.1157155	darkness	-0.08512596
-4.1157155	drunkard	-0.08512596
-4.1157155	reels	-0.08512596
-4.1157155	path	-0.08512596
-4.1157155	titans	-0.08512596
-4.1157155	wheels	-0.08512596
-4.1157155	non	-0.08512596
-4.1157155	advance	-0.08512596
-3.9630654	cheer	-0.08512596
-4.1157155	dank	-0.08512596
-3.8351657	dry	-0.08512596
-4.1157155	upfill	-0.08512596
-4.1157155	osier	-0.08512596
-4.1157155	cage	-0.08512596
-4.1157155	ours	-0.08512596
-4.1157155	baleful	-0.08512596
-4.1157155	weeds	-0.08512596
-4.1157155	preciousjuiced	-0.08512596
-3.686661	flowers	-0.12804241
-3.9630654	natures	-0.08512596
-3.686661	tomb	-0.19464083
-4.1157155	burying	-0.08512596
-3.8351657	womb	-0.08512596
-4.1157155	divers	-0.08512596
-4.1157155	sucking	-0.08512596
-3.9630654	natural	-0.08512596
-4.1157155	virtues	-0.08512596
-4.1157155	mickle	-0.08512596
-4.1157155	powerful	-0.08512596
-4.1157155	plants	-0.08512596
-3.9630654	herbs	-0.08512596
-3.9630654	stones	-0.08512596
-4.1157155	qualities	-0.08512596
-4.1157155	special	-0.08512596
-3.9630654	aught	-0.08512596
-4.1157155	straind	-0.08512596
-4.1157155	revolts	-0.08512596
-4.1157155	stumbling	-0.08512596
-4.1157155	abuse	-0.08512596
-4.1157155	virtue	-0.08512596
-3.488217	itself	-0.12058866
-3.8351657	turns	-0.085126
-3.9630654	vice	-0.08512596
-4.1157155	misapplied	-0.08512596
-4.1157155	action	-0.08512596
-4.1157155	dignified	-0.08512596
-4.1157155	infant	-0.08512596
-4.1157155	rind	-0.08512596
-4.1157155	residence	-0.08512596
-4.1157155	medicine	-0.08512596
-4.1157155	smelt	-0.08512596
-4.1157155	cheers	-0.08512596
-3.9630654	each	-0.20159672
-4.1157155	tasted	-0.08512596
-4.1157155	slays	-0.08512596
-4.1157155	senses	-0.08512596
-4.1157155	opposed	-0.08512596
-4.1157155	kings	-0.08512596
-4.1157155	encamp	-0.08512596
-3.9630654	worser	-0.08512596
-4.1157155	predominant	-0.08512596
-3.2978384	full	-0.3707321
-4.1157155	canker	-0.08512596
-4.1157155	eats	-0.08512596
-4.1157155	plant	-0.08512596
-4.1157155	benedicite	-0.08512596
-4.1157155	saluteth	-0.08512596
-4.1157155	argues	-0.08512596
-4.1157155	distempered	-0.08512596
-3.8351657	keeps	-0.15920661
-3.576202	mans	-0.08512596
-4.1157155	lodges	-0.08512596
-4.1157155	unbruised	-0.08512596
-4.1157155	unstuffd	-0.08512596
-4.1157155	couch	-0.08512596
-3.9630654	limbs	-0.08512596
-3.9630654	reign	-0.08512596
-4.1157155	earliness	-0.08512596
-4.1157155	assure	-0.08512596
-4.1157155	uprousd	-0.08512596
-4.1157155	distemprature	-0.08512596
-4.1157155	truethe	-0.08512596
-4.1157155	sweeter	-0.08512596
-3.9630654	feasting	-0.08512596
-3.9630654	wounded	-0.08512596
-4.1157155	remedies	-0.08512596
-4.1157155	physic	-0.08512596
-4.1157155	hatred	-0.08512596
-3.9630654	lo	-0.085126
-4.1157155	intercession	-0.08512596
-4.1157155	steads	-0.08512596
-4.1157155	plain	-0.08512596
-4.1157155	homely	-0.08512596
-3.9630654	drift	-0.08512596
-3.9630654	riddling	-0.08512596
-3.9630654	confession	-0.085126
-3.9630654	finds	-0.08512596
-4.1157155	plainly	-0.08512596
-4.1157155	combind	-0.08512596
-4.1157155	combine	-0.08512596
-3.686661	met	-0.08512596
-4.1157155	francis	-0.08512596
-4.1157155	forsaken	-0.08512596
-3.8351657	truly	-0.085126
-3.9630654	jesu	-0.085126
-4.1157155	maria	-0.08512596
-3.9630654	deal	-0.08512596
-4.1157155	brine	-0.08512596
-4.1157155	sallow	-0.08512596
-3.576202	cheeks	-0.085126
-3.9630654	salt	-0.08512596
-3.9630654	water	-0.08512596
-4.1157155	thrown	-0.08512596
-4.1157155	season	-0.08512596
-4.1157155	clears	-0.08512596
-3.9630654	groans	-0.08512596
-3.686661	ring	-0.08512596
-4.1157155	stain	-0.08512596
-3.686661	woes	-0.08512596
-3.8351657	changd	-0.085126
-3.8351657	theres	-0.13946854
-4.1157155	chidst	-0.08512596
-3.9630654	doting	-0.08512596
-4.1157155	pupil	-0.08512596
-4.1157155	badst	-0.08512596
-3.8351657	chide	-0.08512596
-4.1157155	allow	-0.08512596
-4.1157155	rote	-0.08512596
-4.1157155	spell	-0.08512596
-4.1157155	waverer	-0.08512596
-4.1157155	assistant	-0.08512596
-4.1157155	alliance	-0.08512596
-4.1157155	rancour	-0.08512596
-3.9630654	pure	-0.085126
-3.488217	haste	-0.24213749
-3.686661	slow	-0.13946854
-4.1157155	stumble	-0.08512596
-3.9630654	devil	-0.085126
-4.1157155	hardhearted	-0.08512596
-3.686661	wench	-0.08512596
-4.1157155	torments	-0.08512596
-3.9630654	sure	-0.08512596
-3.488217	letter	-0.17920923
-3.9630654	challenge	-0.08512596
-3.9630654	write	-0.08512596
-4.1157155	dared	-0.08512596
-4.1157155	stabbd	-0.08512596
-3.9630654	white	-0.08512596
-4.1157155	wenchs	-0.08512596
-4.1157155	song	-0.08512596
-4.1157155	pin	-0.08512596
-4.1157155	cleft	-0.08512596
-4.1157155	bowboys	-0.08512596
-4.1157155	buttshaft	-0.08512596
-4.1157155	cats	-0.08512596
-4.1157155	courageous	-0.08512596
-4.1157155	captain	-0.08512596
-4.1157155	compliments	-0.08512596
-3.9630654	fights	-0.08512596
-4.1157155	pricksongkeeps	-0.08512596
-4.1157155	distance	-0.08512596
-4.1157155	proportion	-0.08512596
-4.1157155	rests	-0.08512596
-4.1157155	minim	-0.08512596
-4.1157155	third	-0.08512596
-4.1157155	butcher	-0.08512596
-4.1157155	button	-0.08512596
-4.1157155	duellist	-0.08512596
-3.8351657	second	-0.08512596
-3.8351657	immortal	-0.085126
-3.9630654	passado	-0.20159672
-4.1157155	punto	-0.08512596
-3.9630654	reverse	-0.08512596
-4.1157155	hay	-0.08512596
-4.1157155	pox	-0.08512596
-4.1157155	lisping	-0.08512596
-4.1157155	affecting	-0.08512596
-4.1157155	fantasticoes	-0.08512596
-4.1157155	tuners	-0.08512596
-4.1157155	accent	-0.08512596
-4.1157155	tall	-0.08512596
-4.1157155	whore	-0.08512596
-3.686661	lamentable	-0.13946854
-4.1157155	grandsir	-0.08512596
-4.1157155	afflicted	-0.08512596
-3.686661	flies	-0.08512596
-4.1157155	fashionmongers	-0.08512596
-4.1157155	pardonamis	-0.08512596
-3.9630654	ease	-0.08512596
-4.1157155	bench	-0.08512596
-3.576202	bones	-0.13946854
-4.1157155	roe	-0.08512596
-4.1157155	dried	-0.08512596
-4.1157155	herring	-0.08512596
-4.1157155	fishified	-0.08512596
-4.1157155	numbers	-0.08512596
-4.1157155	petrarch	-0.08512596
-4.1157155	flowed	-0.08512596
-4.1157155	laura	-0.08512596
-4.1157155	kitchen	-0.08512596
-4.1157155	berhyme	-0.08512596
-4.1157155	dido	-0.08512596
-4.1157155	dowdy	-0.08512596
-4.1157155	cleopatra	-0.08512596
-4.1157155	gypsy	-0.08512596
-4.1157155	helen	-0.08512596
-4.1157155	hero	-0.08512596
-4.1157155	hildings	-0.08512596
-4.1157155	harlots	-0.08512596
-4.1157155	gray	-0.08512596
-4.1157155	bon	-0.08512596
-4.1157155	jour	-0.08512596
-3.9630654	french	-0.08512596
-4.1157155	salutation	-0.08512596
-4.1157155	slop	-0.08512596
-3.9630654	counterfeit	-0.08512596
-3.9630654	fairly	-0.08512596
-4.1157155	slip	-0.08512596
-4.1157155	conceive	-0.08512596
-4.1157155	strain	-0.08512596
-3.9630654	courtesy	-0.15920661
-4.1157155	constrains	-0.08512596
-4.1157155	hams	-0.08512596
-4.1157155	cursy	-0.08512596
-4.1157155	kindly	-0.08512596
-3.8351657	courteous	-0.085126
-4.1157155	exposition	-0.08512596
-3.9630654	pink	-0.08512596
-3.9630654	pump	-0.08512596
-4.1157155	wellflowerd	-0.08512596
-4.1157155	single	-0.08512596
-3.9630654	sole	-0.08512596
-3.9630654	remain	-0.08512596
-3.9630654	wearing	-0.08512596
-3.9630654	solely	-0.20159672
-4.1157155	singular	-0.08512596
-4.1157155	singlesold	-0.08512596
-4.1157155	singleness	-0.08512596
-3.8351657	faint	-0.15920661
-3.9630654	swits	-0.20159672
-4.1157155	spurs	-0.08512596
-4.1157155	wildgoose	-0.08512596
-4.1157155	chase	-0.08512596
-3.686661	wild	-0.08512596
-3.576202	goose	-0.19464083
-3.8351657	whole	-0.085126
-4.1157155	sweeting	-0.08512596
-3.9630654	sharp	-0.08512596
-4.1157155	sauce	-0.08512596
-4.1157155	cheveril	-0.08512596
-4.1157155	stretches	-0.08512596
-4.1157155	inch	-0.08512596
-4.1157155	narrow	-0.08512596
-4.1157155	ell	-0.08512596
-3.686661	broad	-0.08512596
-4.1157155	stretch	-0.08512596
-4.1157155	added	-0.08512596
-4.1157155	proves	-0.08512596
-3.9630654	wide	-0.085126
-4.1157155	groaning	-0.08512596
-4.1157155	sociable	-0.08512596
-4.1157155	drivelling	-0.08512596
-4.1157155	runs	-0.08512596
-4.1157155	lolling	-0.08512596
-4.1157155	bauble	-0.08512596
-4.1157155	hole	-0.08512596
-3.8351657	stop	-0.12804241
-4.1157155	desirest	-0.08512596
-3.8351657	hair	-0.08512596
-4.1157155	large	-0.08512596
-4.1157155	deceivd	-0.08512596
-4.1157155	depth	-0.08512596
-3.9630654	meant	-0.08512596
-4.1157155	occupy	-0.08512596
-4.1157155	argument	-0.08512596
-4.1157155	goodly	-0.08512596
-3.9630654	gear	-0.08512596
-4.1157155	shirt	-0.08512596
-4.1157155	smock	-0.08512596
-3.488217	peter	-0.11144785
-4.1157155	fan	-0.08512596
-4.1157155	fans	-0.08512596
-3.9630654	goodden	-0.08512596
-3.686661	gentlewoman	-0.08512596
-4.1157155	bawdy	-0.08512596
-4.1157155	dial	-0.08512596
-4.1157155	noon	-0.08512596
-4.1157155	mar	-0.08512596
-4.1157155	troth	-0.08512596
-4.1157155	older	-0.08512596
-4.1157155	youngest	-0.08512596
-3.686661	fault	-0.08512596
-4.1157155	worst	-0.08512596
-4.1157155	confidence	-0.08512596
-4.1157155	endite	-0.08512596
-4.1157155	bawd	-0.08512596
-3.8351657	hare	-0.13946854
-4.1157155	lenten	-0.08512596
-4.1157155	pie	-0.08512596
-3.686661	something	-0.08512596
-4.1157155	stale	-0.08512596
-3.8351657	hoar	-0.13946854
-4.1157155	spent	-0.085126
-3.8351657	meat	-0.085126
-4.1157155	score	-0.08512596
-4.1157155	hoars	-0.08512596
-3.9630654	dinner	-0.085126
-4.1157155	merchant	-0.08512596
-4.1157155	ropery	-0.08512596
-3.8351657	minute	-0.08512596
-4.1157155	month	-0.08512596
-4.1157155	lustier	-0.08512596
-4.1157155	jacks	-0.08512596
-4.1157155	scurvy	-0.08512596
-3.8351657	knave	-0.085126
-4.1157155	flirtgills	-0.08512596
-4.1157155	skainsmates	-0.08512596
-4.1157155	suffer	-0.08512596
-3.8351657	occasion	-0.085126
-3.9630654	afore	-0.08512596
-4.1157155	vexed	-0.08512596
-4.1157155	quivers	-0.08512596
-3.8351657	told	-0.085126
-3.9630654	paradise	-0.08512596
-4.1157155	gross	-0.08512596
-4.1157155	behaviour	-0.08512596
-4.1157155	double	-0.08512596
-4.1157155	offred	-0.08512596
-4.1157155	dealing	-0.08512596
-3.9630654	commend	-0.20159672
-3.9630654	protest	-0.085126
-3.8351657	joyful	-0.08512596
-4.1157155	gentlemanlike	-0.08512596
-3.9630654	offer	-0.08512596
-3.8351657	devise	-0.15920661
-3.1295736	friar	-0.14933434
-3.686661	laurence	-0.22029603
-4.1157155	shrivd	-0.08512596
-4.1157155	pains	-0.08512596
-4.1157155	penny	-0.08512596
-3.9630654	behind	-0.08512596
-4.1157155	abbey	-0.08512596
-3.352519	bring	-0.12804241
-3.686661	cords	-0.12804241
-4.1157155	tackled	-0.08512596
-4.1157155	stair	-0.08512596
-4.1157155	topgallant	-0.08512596
-4.1157155	convoy	-0.08512596
-4.1157155	trusty	-0.08512596
-4.1157155	quit	-0.08512596
-4.1157155	bless	-0.08512596
-3.9630654	hark	-0.13946854
-4.1157155	sayst	-0.08512596
-4.1157155	putting	-0.08512596
-4.1157155	sweetest	-0.085126
-4.1157155	prating	-0.08512596
-4.1157155	nobleman	-0.08512596
-3.686661	knife	-0.08512596
-4.1157155	aboard	-0.08512596
-4.1157155	lieve	-0.08512596
-3.8351657	toad	-0.085126
-4.1157155	properer	-0.08512596
-4.1157155	clout	-0.08512596
-4.1157155	versal	-0.08512596
-3.8351657	rosemary	-0.085126
-3.9630654	r	-0.08512596
-4.1157155	mocker	-0.08512596
-4.1157155	dogs	-0.08512596
-3.9630654	begins	-0.08512596
-4.1157155	sententious	-0.08512596
-3.9630654	apace	-0.08512596
-4.1157155	clock	-0.08512596
-4.1157155	promisd	-0.08512596
-4.1157155	perchance	-0.08512596
-4.1157155	lame	-0.08512596
-4.1157155	heralds	-0.08512596
-3.9630654	thoughts	-0.08512596
-3.9630654	ten	-0.08512596
-4.1157155	faster	-0.08512596
-4.1157155	glide	-0.08512596
-4.1157155	suns	-0.08512596
-4.1157155	driving	-0.08512596
-3.9630654	shadows	-0.08512596
-3.9630654	over	-0.08512596
-4.1157155	lowring	-0.08512596
-4.1157155	hills	-0.08512596
-4.1157155	nimblepiniond	-0.08512596
-4.1157155	doves	-0.08512596
-4.1157155	windswift	-0.08512596
-4.1157155	highmost	-0.08512596
-4.1157155	hill	-0.08512596
-4.1157155	journey	-0.08512596
-3.686661	warm	-0.13946854
-3.8351657	youthful	-0.085126
-3.8351657	swift	-0.085126
-3.9630654	motion	-0.08512596
-4.1157155	ball	-0.08512596
-4.1157155	bandy	-0.08512596
-4.1157155	folks	-0.08512596
-4.1157155	feign	-0.08512596
-4.1157155	unwieldy	-0.08512596
-3.8351657	honey	-0.085126
-3.2056074	news	-0.1364405
-4.1157155	gate	-0.08512596
-3.9630654	lookst	-0.08512596
-4.1157155	merrily	-0.08512596
-4.1157155	shamest	-0.08512596
-4.1157155	playing	-0.08512596
-3.686661	sour	-0.08512596
-4.1157155	aweary	-0.08512596
-3.9630654	fie	-0.08512596
-4.1157155	ache	-0.08512596
-4.1157155	jaunce	-0.08512596
-3.9630654	circumstance	-0.08512596
-3.686661	simple	-0.12804241
-3.9630654	excels	-0.08512596
-3.4150896	body	-0.08512596
-3.9630654	ways	-0.08512596
-4.1157155	dind	-0.08512596
-4.1157155	aches	-0.08512596
-3.8351657	beats	-0.085126
-4.1157155	pieces	-0.08512596
-4.1157155	t	-0.08512596
-3.8351657	beshrew	-0.08512596
-4.1157155	sending	-0.08512596
-4.1157155	catch	-0.08512596
-4.1157155	jauncing	-0.08512596
-4.1157155	sorry	-0.08512596
-4.1157155	handsome	-0.08512596
-4.1157155	oddly	-0.08512596
-4.1157155	repliest	-0.08512596
-3.9630654	gods	-0.085126
-4.1157155	poultice	-0.08512596
-4.1157155	aching	-0.08512596
-4.1157155	henceforward	-0.08512596
-4.1157155	messages	-0.08512596
-4.1157155	coil	-0.08512596
-3.8351657	got	-0.085126
-3.8351657	hie	-0.19464083
-4.1157155	wanton	-0.08512596
-4.1157155	theyll	-0.08512596
-3.686661	church	-0.08512596
-4.1157155	ladder	-0.08512596
-3.9630654	nest	-0.08512596
-4.1157155	drudge	-0.08512596
-3.9630654	smile	-0.08512596
-3.9630654	heavens	-0.08512596
-3.9630654	act	-0.08512596
-4.1157155	afterhours	-0.08512596
-3.8351657	amen	-0.26186562
-4.1157155	countervail	-0.08512596
-4.1157155	lovedevouring	-0.08512596
-3.9630654	violent	-0.08512596
-3.9630654	delights	-0.08512596
-4.1157155	ends	-0.08512596
-3.9630654	triumph	-0.08512596
-3.8351657	powder	-0.085126
-4.1157155	consume	-0.08512596
-3.8351657	loathsome	-0.085126
-4.1157155	deliciousness	-0.08512596
-4.1157155	confounds	-0.08512596
-4.1157155	appetite	-0.08512596
-4.1157155	moderately	-0.08512596
-4.1157155	arrives	-0.08512596
-4.1157155	tardy	-0.08512596
-3.9630654	everlasting	-0.08512596
-4.1157155	flint	-0.08512596
-4.1157155	bestride	-0.08512596
-4.1157155	gossamer	-0.08512596
-4.1157155	idles	-0.08512596
-4.1157155	confessor	-0.08512596
-3.8351657	thanks	-0.15920661
-4.1157155	heapd	-0.08512596
-4.1157155	skill	-0.08512596
-4.1157155	blazon	-0.08512596
-4.1157155	sweeten	-0.08512596
-4.1157155	neighbour	-0.08512596
-4.1157155	musics	-0.08512596
-4.1157155	unfold	-0.08512596
-4.1157155	imagind	-0.08512596
-3.9630654	happiness	-0.08512596
-4.1157155	receive	-0.08512596
-3.9630654	conceit	-0.08512596
-3.9630654	ornament	-0.08512596
-3.9630654	beggars	-0.08512596
-4.1157155	worth	-0.08512596
-4.1157155	excess	-0.08512596
-3.9630654	sum	-0.08512596
-3.8351657	work	-0.085126
-4.1157155	incorporate	-0.08512596
-4.1157155	retire	-0.08512596
-3.9630654	scape	-0.08512596
-3.9630654	brawl	-0.08512596
-4.1157155	stirring	-0.08512596
-3.9630654	jack	-0.08512596
-4.1157155	mood	-0.08512596
-4.1157155	italy	-0.08512596
-3.9630654	moody	-0.08512596
-4.1157155	shortly	-0.08512596
-4.1157155	beard	-0.08512596
-4.1157155	cracking	-0.08512596
-4.1157155	nuts	-0.08512596
-3.8351657	reason	-0.08512596
-4.1157155	hazel	-0.08512596
-3.9630654	spy	-0.08512596
-4.1157155	quarrels	-0.08512596
-4.1157155	egg	-0.08512596
-4.1157155	beaten	-0.08512596
-4.1157155	addle	-0.08512596
-3.9630654	quarrelling	-0.20159672
-4.1157155	quarrelld	-0.08512596
-4.1157155	coughing	-0.08512596
-4.1157155	street	-0.08512596
-4.1157155	wakened	-0.08512596
-3.9630654	lain	-0.085126
-4.1157155	doublet	-0.08512596
-4.1157155	easter	-0.08512596
-4.1157155	tying	-0.08512596
-4.1157155	riband	-0.08512596
-4.1157155	tutor	-0.08512596
-3.8351657	apt	-0.085126
-3.8351657	buy	-0.085126
-4.1157155	fee	-0.08512596
-4.1157155	quarter	-0.08512596
-4.1157155	den	-0.08512596
-4.1157155	couple	-0.08512596
-4.1157155	consortest	-0.08512596
-3.8351657	consort	-0.15920661
-3.9630654	minstrels	-0.08512596
-3.8351657	discords	-0.085126
-4.1157155	fiddlestick	-0.08512596
-4.1157155	zounds	-0.08512596
-4.1157155	public	-0.08512596
-4.1157155	haunt	-0.08512596
-4.1157155	coldly	-0.08512596
-4.1157155	grievances	-0.08512596
-4.1157155	budge	-0.08512596
-4.1157155	hangd	-0.08512596
-3.9630654	field	-0.08512596
-4.1157155	follower	-0.08512596
-3.9630654	worship	-0.08512596
-3.8351657	afford	-0.15920661
-4.1157155	appertaining	-0.08512596
-4.1157155	injuries	-0.08512596
-4.1157155	injurd	-0.08512596
-3.9630654	dearly	-0.08512596
-3.8351657	calm	-0.085126
-4.1157155	dishonourable	-0.08512596
-4.1157155	submission	-0.08512596
-4.1157155	alla	-0.08512596
-4.1157155	stoccata	-0.08512596
-4.1157155	carries	-0.08512596
-4.1157155	ratcatcher	-0.08512596
-3.9630654	hereafter	-0.08512596
-3.9630654	drybeat	-0.08512596
-4.1157155	eight	-0.08512596
-3.9630654	pluck	-0.08512596
-4.1157155	pitcher	-0.08512596
-3.9630654	forbear	-0.08512596
-3.9630654	outrage	-0.08512596
-4.1157155	expressly	-0.08512596
-4.1157155	bandying	-0.08512596
-4.1157155	plague	-0.08512596
-4.1157155	houses	-0.08512596
-4.1157155	sped	-0.08512596
-3.9630654	scratch	-0.15920661
-3.9630654	page	-0.08512596
-4.1157155	surgeon	-0.08512596
-4.1157155	courage	-0.08512596
-4.1157155	twill	-0.08512596
-4.1157155	peppered	-0.08512596
-4.1157155	rat	-0.08512596
-3.9630654	cat	-0.08512596
-4.1157155	braggart	-0.08512596
-4.1157155	rogue	-0.08512596
-4.1157155	arithmetic	-0.08512596
-3.488217	thought	-0.08512596
-3.9630654	worms	-0.08512596
-3.9630654	soundly	-0.08512596
-3.9630654	princes	-0.13946854
-4.1157155	ally	-0.08512596
-3.8351657	mortal	-0.085126
-4.1157155	behalf	-0.08512596
-4.1157155	reputation	-0.08512596
-3.9630654	staind	-0.08512596
-3.2056074	tybalts	-0.2131169
-3.9630654	slander	-0.08512596
-4.1157155	effeminate	-0.08512596
-3.9630654	temper	-0.08512596
-4.1157155	softned	-0.08512596
-4.1157155	valours	-0.08512596
-3.9630654	brave	-0.08512596
-3.576202	mercutios	-0.08512596
-3.9630654	gallant	-0.08512596
-4.1157155	aspird	-0.08512596
-4.1157155	fate	-0.08512596
-4.1157155	moe	-0.08512596
-4.1157155	depend	-0.08512596
-3.9630654	others	-0.08512596
-4.1157155	furious	-0.08512596
-3.9630654	alive	-0.08512596
-3.064889	slain	-0.19844574
-4.1157155	respective	-0.08512596
-4.1157155	lenity	-0.08512596
-4.1157155	fireeyd	-0.08512596
-3.8351657	fury	-0.085126
-3.8351657	conduct	-0.085126
-4.1157155	gavest	-0.08512596
-4.1157155	staying	-0.08512596
-3.8351657	wretched	-0.085126
-3.9630654	determine	-0.08512596
-3.9630654	amazd	-0.08512596
-3.8351657	doom	-0.12804241
-3.9630654	taken	-0.20159672
-4.1157155	citizen	-0.08512596
-3.576202	killd	-0.11534177
-3.9630654	murtherer	-0.08512596
-3.9630654	charge	-0.08512596
-3.9630654	obey	-0.08512596
-4.1157155	beginners	-0.08512596
-4.1157155	discover	-0.08512596
-4.1157155	unlucky	-0.08512596
-3.686661	slew	-0.12804241
-4.1157155	brothers	-0.08512596
-4.1157155	spilld	-0.08512596
-3.9630654	shed	-0.08512596
-3.9630654	bethink	-0.08512596
-3.9630654	nice	-0.08512596
-4.1157155	displeasure	-0.08512596
-4.1157155	uttered	-0.08512596
-4.1157155	humbly	-0.08512596
-4.1157155	bowd	-0.08512596
-4.1157155	truce	-0.08512596
-4.1157155	unruly	-0.08512596
-4.1157155	spleen	-0.08512596
-3.9630654	deaf	-0.20159672
-4.1157155	tilts	-0.08512596
-4.1157155	piercing	-0.08512596
-3.8351657	deadly	-0.085126
-3.576202	point	-0.12804241
-4.1157155	martial	-0.08512596
-4.1157155	sends	-0.08512596
-4.1157155	dexterity	-0.08512596
-4.1157155	retorts	-0.08512596
-3.8351657	cries	-0.085126
-3.686661	friends	-0.08512596
-4.1157155	swifter	-0.08512596
-4.1157155	agile	-0.08512596
-4.1157155	points	-0.08512596
-3.9630654	twixt	-0.08512596
-4.1157155	stout	-0.08512596
-3.9630654	newly	-0.08512596
-3.686661	beg	-0.08512596
-4.1157155	justice	-0.08512596
-3.9630654	price	-0.08512596
-4.1157155	owe	-0.08512596
-4.1157155	concludes	-0.08512596
-4.1157155	offence	-0.08512596
-3.9630654	immediately	-0.08512596
-3.488217	exile	-0.15920661
-4.1157155	interest	-0.08512596
-4.1157155	hates	-0.08512596
-4.1157155	proceeding	-0.08512596
-4.1157155	ableeding	-0.08512596
-4.1157155	amerce	-0.08512596
-3.9630654	repent	-0.20159672
-3.9630654	loss	-0.08512596
-4.1157155	pleading	-0.08512596
-4.1157155	excuses	-0.08512596
-4.1157155	purchase	-0.08512596
-4.1157155	abuses	-0.08512596
-3.576202	mercy	-0.12804241
-3.9630654	murders	-0.08512596
-4.1157155	pardoning	-0.08512596
-4.1157155	gallop	-0.08512596
-4.1157155	fieryfooted	-0.08512596
-4.1157155	steeds	-0.08512596
-4.1157155	phoebus	-0.08512596
-3.9630654	lodging	-0.20159672
-4.1157155	phaeton	-0.08512596
-4.1157155	west	-0.08512596
-4.1157155	cloudy	-0.08512596
-4.1157155	curtain	-0.08512596
-4.1157155	loveperforming	-0.08512596
-4.1157155	runaway	-0.08512596
-4.1157155	wink	-0.08512596
-3.9630654	leap	-0.08512596
-3.9630654	arms	-0.08512596
-4.1157155	untalkd	-0.08512596
-4.1157155	unseen	-0.08512596
-3.9630654	amorous	-0.08512596
-4.1157155	rites	-0.08512596
-4.1157155	agrees	-0.08512596
-4.1157155	sobersuited	-0.08512596
-4.1157155	matron	-0.08512596
-3.9630654	lose	-0.08512596
-4.1157155	winning	-0.08512596
-4.1157155	playd	-0.08512596
-4.1157155	stainless	-0.08512596
-4.1157155	maidenhoods	-0.08512596
-3.9630654	hood	-0.085126
-4.1157155	unmannd	-0.08512596
-4.1157155	bating	-0.08512596
-4.1157155	mantle	-0.08512596
-4.1157155	acted	-0.08512596
-3.8351657	modesty	-0.15920661
-4.1157155	whiter	-0.08512596
-4.1157155	snow	-0.08512596
-4.1157155	ravens	-0.08512596
-4.1157155	blackbrowd	-0.08512596
-4.1157155	garish	-0.08512596
-4.1157155	bought	-0.08512596
-3.9630654	mansion	-0.08512596
-3.9630654	possessd	-0.08512596
-3.9630654	sold	-0.08512596
-4.1157155	enjoyd	-0.08512596
-3.9630654	tedious	-0.08512596
-3.9630654	festival	-0.08512596
-4.1157155	impatient	-0.08512596
-3.9630654	robes	-0.08512596
-3.9630654	brings	-0.08512596
-4.1157155	heavenly	-0.08512596
-4.1157155	eloquence	-0.08512596
-4.1157155	wring	-0.08512596
-3.9630654	weraday	-0.08512596
-4.1157155	undone	-0.08512596
-4.1157155	torment	-0.08512596
-4.1157155	roard	-0.08512596
-3.9630654	dismal	-0.08512596
-3.8351657	bare	-0.085126
-4.1157155	vowel	-0.08512596
-4.1157155	deathdarting	-0.08512596
-4.1157155	cockatrice	-0.08512596
-4.1157155	sounds	-0.08512596
-4.1157155	weal	-0.08512596
-3.9630654	wound	-0.08512596
-4.1157155	manly	-0.08512596
-3.576202	corse	-0.11534177
-3.9630654	ashes	-0.08512596
-4.1157155	bedaubd	-0.08512596
-4.1157155	goreblood	-0.08512596
-4.1157155	swounded	-0.08512596
-4.1157155	bankrout	-0.08512596
-4.1157155	resign	-0.08512596
-3.9630654	press	-0.08512596
-3.9630654	bier	-0.08512596
-3.9630654	slaughtred	-0.08512596
-4.1157155	dearlovd	-0.08512596
-4.1157155	dearer	-0.08512596
-4.1157155	dreadful	-0.08512596
-4.1157155	trumpet	-0.08512596
-3.9630654	general	-0.08512596
-3.576202	living	-0.08512596
-3.2056074	banished	-0.32582542
-4.1157155	serpent	-0.08512596
-4.1157155	flowring	-0.08512596
-4.1157155	dragon	-0.08512596
-4.1157155	beautiful	-0.08512596
-3.8351657	fiend	-0.085126
-4.1157155	angelical	-0.08512596
-4.1157155	dovefeatherd	-0.08512596
-4.1157155	raven	-0.08512596
-4.1157155	wolvishravening	-0.08512596
-4.1157155	divinest	-0.08512596
-3.9630654	just	-0.08512596
-4.1157155	opposite	-0.08512596
-4.1157155	justly	-0.08512596
-4.1157155	seemst	-0.08512596
-3.686661	damned	-0.08512596
-4.1157155	bower	-0.08512596
-4.1157155	containing	-0.08512596
-4.1157155	deceit	-0.08512596
-4.1157155	gorgeous	-0.08512596
-3.9630654	palace	-0.08512596
-4.1157155	honesty	-0.08512596
-4.1157155	perjurd	-0.08512596
-4.1157155	dissemblers	-0.08512596
-4.1157155	aqua	-0.08512596
-4.1157155	vitae	-0.08512596
-4.1157155	blisterd	-0.08512596
-3.8351657	born	-0.15920661
-4.1157155	ashamd	-0.08512596
-3.9630654	throne	-0.08512596
-4.1157155	crownd	-0.08512596
-4.1157155	monarch	-0.08512596
-4.1157155	universal	-0.08512596
-3.9630654	beast	-0.085126
-4.1157155	threehours	-0.08512596
-3.9630654	mangled	-0.08512596
-3.9630654	native	-0.08512596
-3.9630654	spring	-0.08512596
-4.1157155	tributary	-0.08512596
-4.1157155	drops	-0.08512596
-4.1157155	belong	-0.08512596
-4.1157155	mistaking	-0.08512596
-4.1157155	murdred	-0.08512596
-4.1157155	memory	-0.08512596
-3.9630654	guilty	-0.08512596
-4.1157155	deeds	-0.08512596
-4.1157155	sinners	-0.08512596
-4.1157155	minds	-0.08512596
-4.1157155	fellowship	-0.08512596
-4.1157155	needly	-0.08512596
-4.1157155	rankd	-0.08512596
-4.1157155	followed	-0.08512596
-4.1157155	modern	-0.08512596
-3.9630654	lamentation	-0.08512596
-4.1157155	movd	-0.08512596
-4.1157155	rearward	-0.08512596
-4.1157155	following	-0.08512596
-4.1157155	limit	-0.08512596
-3.686661	weeping	-0.13946854
-4.1157155	wailing	-0.08512596
-3.9630654	wash	-0.08512596
-4.1157155	wounds	-0.08512596
-4.1157155	theirs	-0.08512596
-3.352519	banishment	-0.424416
-4.1157155	ropes	-0.08512596
-3.8351657	beguild	-0.085126
-4.1157155	exild	-0.08512596
-4.1157155	highway	-0.08512596
-4.1157155	maidenwidowed	-0.08512596
-4.1157155	wot	-0.08512596
-4.1157155	affliction	-0.08512596
-4.1157155	enanmourd	-0.08512596
-3.9630654	parts	-0.08512596
-3.9630654	wedded	-0.08512596
-4.1157155	calamity	-0.08512596
-4.1157155	acquaintance	-0.08512596
-4.1157155	familiar	-0.08512596
-3.8351657	tidings	-0.15920661
-3.9630654	doomsday	-0.08512596
-4.1157155	gentler	-0.08512596
-4.1157155	vanishd	-0.08512596
-3.9630654	bodys	-0.08512596
-4.1157155	merciful	-0.08512596
-3.9630654	terror	-0.08512596
-4.1157155	purgatory	-0.08512596
-3.686661	banishd	-0.08512596
-3.9630654	worlds	-0.08512596
-4.1157155	mistermd	-0.08512596
-4.1157155	calling	-0.08512596
-4.1157155	cutst	-0.08512596
-4.1157155	axe	-0.08512596
-4.1157155	smilest	-0.08512596
-4.1157155	stroke	-0.08512596
-4.1157155	unthankfulness	-0.08512596
-3.9630654	taking	-0.08512596
-4.1157155	rushd	-0.08512596
-4.1157155	turnd	-0.08512596
-3.9630654	seest	-0.08512596
-3.9630654	unworthy	-0.08512596
-4.1157155	validity	-0.08512596
-4.1157155	courtship	-0.08512596
-3.9630654	carrion	-0.08512596
-4.1157155	seize	-0.08512596
-3.9630654	wonder	-0.08512596
-3.686661	juliets	-0.08512596
-4.1157155	blessing	-0.08512596
-4.1157155	thinking	-0.08512596
-3.9630654	free	-0.08512596
-4.1157155	sayest	-0.08512596
-4.1157155	mixd	-0.08512596
-4.1157155	sharpground	-0.08512596
-4.1157155	howling	-0.08512596
-4.1157155	attends	-0.08512596
-4.1157155	divine	-0.08512596
-4.1157155	sinabsolver	-0.08512596
-4.1157155	professd	-0.08512596
-4.1157155	mangle	-0.08512596
-4.1157155	armour	-0.08512596
-4.1157155	adversitys	-0.08512596
-4.1157155	milk	-0.08512596
-3.8351657	philosophy	-0.085126
-3.8351657	hang	-0.08512596
-4.1157155	displant	-0.08512596
-4.1157155	prevails	-0.08512596
-4.1157155	madmen	-0.08512596
-4.1157155	dispute	-0.08512596
-4.1157155	estate	-0.08512596
-4.1157155	murdered	-0.08512596
-4.1157155	mightst	-0.08512596
-4.1157155	unmade	-0.08512596
-3.9630654	knocks	-0.08512596
-4.1157155	heartsick	-0.08512596
-4.1157155	mistlike	-0.08512596
-4.1157155	infold	-0.08512596
-3.8351657	search	-0.08512596
-4.1157155	whos	-0.08512596
-4.1157155	study	-0.08512596
-4.1157155	simpleness	-0.08512596
-4.1157155	errand	-0.08512596
-4.1157155	woeful	-0.08512596
-4.1157155	sympathy	-0.08512596
-4.1157155	predicament	-0.08512596
-4.1157155	blubbring	-0.08512596
-4.1157155	blubbering	-0.08512596
-4.1157155	rise	-0.08512596
-3.8351657	deaths	-0.085126
-4.1157155	spakest	-0.08512596
-4.1157155	childhood	-0.08512596
-4.1157155	removd	-0.08512596
-4.1157155	conceald	-0.08512596
-4.1157155	cancelld	-0.08512596
-3.8351657	weeps	-0.13946854
-3.8351657	falls	-0.085126
-4.1157155	level	-0.08512596
-4.1157155	gun	-0.08512596
-3.9630654	cursed	-0.08512596
-4.1157155	murderd	-0.08512596
-4.1157155	anatomy	-0.08512596
-4.1157155	lodge	-0.08512596
-4.1157155	sack	-0.08512596
-3.9630654	womanish	-0.08512596
-4.1157155	acts	-0.08512596
-4.1157155	denote	-0.08512596
-4.1157155	unreasonable	-0.08512596
-4.1157155	unseemly	-0.08512596
-3.9630654	order	-0.08512596
-4.1157155	temperd	-0.08512596
-3.686661	slay	-0.13946854
-3.9630654	doing	-0.08512596
-4.1157155	railest	-0.08512596
-4.1157155	usurer	-0.08512596
-4.1157155	aboundst	-0.08512596
-4.1157155	usest	-0.08512596
-4.1157155	bedeck	-0.08512596
-4.1157155	digressing	-0.08512596
-3.9630654	valour	-0.08512596
-3.8351657	hollow	-0.085126
-4.1157155	perjury	-0.08512596
-4.1157155	killing	-0.08512596
-4.1157155	vowd	-0.08512596
-4.1157155	cherish	-0.08512596
-4.1157155	skilless	-0.08512596
-4.1157155	flask	-0.08512596
-4.1157155	afire	-0.08512596
-4.1157155	ignorance	-0.08512596
-4.1157155	dismembred	-0.08512596
-4.1157155	defence	-0.08512596
-3.8351657	rouse	-0.15920661
-4.1157155	lately	-0.08512596
-4.1157155	slewest	-0.08512596
-3.9630654	threatned	-0.08512596
-4.1157155	becomes	-0.08512596
-4.1157155	pack	-0.08512596
-4.1157155	blessings	-0.08512596
-4.1157155	courts	-0.08512596
-4.1157155	array	-0.08512596
-4.1157155	misbhavd	-0.08512596
-3.9630654	sullen	-0.08512596
-4.1157155	poutst	-0.08512596
-4.1157155	heed	-0.08512596
-3.9630654	miserable	-0.08512596
-4.1157155	decreed	-0.08512596
-4.1157155	ascend	-0.08512596
-4.1157155	blaze	-0.08512596
-4.1157155	reconcile	-0.08512596
-4.1157155	wentst	-0.08512596
-4.1157155	hasten	-0.08512596
-3.9630654	coming	-0.085126
-3.9630654	stayd	-0.085126
-4.1157155	learning	-0.08512596
-4.1157155	grows	-0.08512596
-3.9630654	revivd	-0.08512596
-4.1157155	disguisd	-0.08512596
-4.1157155	sojourn	-0.08512596
-4.1157155	signify	-0.08512596
-4.1157155	chances	-0.08512596
-4.1157155	falln	-0.08512596
-4.1157155	unluckily	-0.08512596
-4.1157155	promise	-0.08512596
-4.1157155	abed	-0.08512596
-3.9630654	tune	-0.08512596
-4.1157155	mewd	-0.08512596
-3.9630654	heaviness	-0.08512596
-4.1157155	childs	-0.08512596
-4.1157155	respects	-0.08512596
-3.9630654	doubt	-0.085126
-4.1157155	acquaint	-0.08512596
-3.8351657	wednesday	-0.15920661
-4.1157155	monday	-0.08512596
-3.352519	thursday	-0.11775554
-4.1157155	earl	-0.08512596
-4.1157155	ado	-0.08512596
-4.1157155	carelessly	-0.08512596
-4.1157155	revel	-0.08512596
-4.1157155	dozen	-0.08512596
-3.9630654	nightingale	-0.15920661
-4.1157155	lark	-0.08512596
-4.1157155	piercd	-0.08512596
-3.686661	nightly	-0.08512596
-3.9630654	sings	-0.08512596
-4.1157155	pomegranate	-0.08512596
-4.1157155	herald	-0.08512596
-4.1157155	lace	-0.08512596
-4.1157155	severing	-0.08512596
-4.1157155	candles	-0.08512596
-4.1157155	jocund	-0.08512596
-4.1157155	tiptoe	-0.08512596
-4.1157155	misty	-0.08512596
-4.1157155	mountain	-0.08512596
-4.1157155	meteor	-0.08512596
-4.1157155	exhales	-0.08512596
-4.1157155	torchbearer	-0.08512596
-4.1157155	needst	-0.08512596
-3.9630654	taen	-0.08512596
-4.1157155	yon	-0.08512596
-4.1157155	grey	-0.08512596
-4.1157155	reflex	-0.08512596
-4.1157155	cynthias	-0.08512596
-4.1157155	notes	-0.08512596
-4.1157155	vaulty	-0.08512596
-4.1157155	wills	-0.08512596
-4.1157155	straining	-0.08512596
-4.1157155	harsh	-0.08512596
-4.1157155	unpleasing	-0.08512596
-4.1157155	sharps	-0.08512596
-4.1157155	division	-0.08512596
-4.1157155	divideth	-0.08512596
-4.1157155	voices	-0.08512596
-4.1157155	affray	-0.08512596
-4.1157155	hunting	-0.08512596
-4.1157155	huntsup	-0.08512596
-4.1157155	wary	-0.08512596
-3.9630654	descend	-0.08512596
-4.1157155	omit	-0.08512596
-4.1157155	opportunity	-0.08512596
-4.1157155	convey	-0.08512596
-4.1157155	greetings	-0.08512596
-4.1157155	thinkst	-0.08512596
-4.1157155	illdivining	-0.08512596
-3.9630654	methinks	-0.08512596
-4.1157155	below	-0.08512596
-4.1157155	bottom	-0.08512596
-4.1157155	fails	-0.08512596
-4.1157155	drinks	-0.08512596
-3.8351657	fickle	-0.085126
-4.1157155	renownd	-0.08512596
-3.8351657	hope	-0.085126
-3.9630654	unaccustomd	-0.085126
-4.1157155	procures	-0.08512596
-4.1157155	evermore	-0.08512596
-3.9630654	cousins	-0.15920661
-4.1157155	couldst	-0.08512596
-3.9630654	feeling	-0.08512596
-4.1157155	weepst	-0.08512596
-3.8351657	slaughterd	-0.15920661
-4.1157155	miles	-0.08512596
-4.1157155	asunder	-0.08512596
-4.1157155	grieve	-0.08512596
-4.1157155	traitor	-0.08512596
-4.1157155	murderer	-0.08512596
-4.1157155	reach	-0.08512596
-4.1157155	venge	-0.08512596
-3.9630654	vengeance	-0.08512596
-4.1157155	runagate	-0.08512596
-3.9630654	dram	-0.08512596
-4.1157155	receipt	-0.08512596
-4.1157155	thereof	-0.08512596
-4.1157155	abhors	-0.08512596
-4.1157155	namd	-0.08512596
-4.1157155	wreak	-0.08512596
-3.9630654	bore	-0.20159672
-3.8351657	needy	-0.085126
-4.1157155	ladyship	-0.08512596
-4.1157155	careful	-0.08512596
-4.1157155	sorted	-0.08512596
-4.1157155	expects	-0.08512596
-4.1157155	peters	-0.08512596
-3.9630654	happily	-0.08512596
-3.9630654	wed	-0.085126
-4.1157155	sets	-0.08512596
-4.1157155	drizzle	-0.08512596
-4.1157155	sunset	-0.08512596
-4.1157155	rains	-0.08512596
-4.1157155	downright	-0.08512596
-4.1157155	conduit	-0.08512596
-4.1157155	showring	-0.08512596
-4.1157155	counterfeitst	-0.08512596
-3.8351657	bark	-0.085126
-4.1157155	ebb	-0.08512596
-4.1157155	flow	-0.08512596
-4.1157155	sailing	-0.08512596
-4.1157155	flood	-0.08512596
-4.1157155	raging	-0.08512596
-4.1157155	overset	-0.08512596
-4.1157155	tempesttossed	-0.08512596
-4.1157155	delivered	-0.08512596
-4.1157155	decree	-0.08512596
-3.8351657	proud	-0.08512596
-3.9630654	blest	-0.08512596
-3.9630654	wrought	-0.08512596
-4.1157155	worthy	-0.08512596
-3.8351657	bridegroom	-0.08512596
-4.1157155	thankful	-0.08512596
-4.1157155	choplogic	-0.08512596
-4.1157155	minion	-0.08512596
-4.1157155	thankings	-0.08512596
-4.1157155	prouds	-0.08512596
-4.1157155	fettle	-0.08512596
-3.8351657	joints	-0.085126
-4.1157155	gainst	-0.08512596
-4.1157155	drag	-0.08512596
-4.1157155	hurdle	-0.08512596
-4.1157155	greensickness	-0.08512596
-3.9630654	baggage	-0.20159672
-4.1157155	tallowface	-0.08512596
-3.9630654	disobedient	-0.08512596
-4.1157155	reply	-0.08512596
-4.1157155	itch	-0.08512596
-4.1157155	scarce	-0.08512596
-4.1157155	curse	-0.08512596
-4.1157155	hilding	-0.08512596
-4.1157155	blame	-0.08512596
-3.9630654	rate	-0.08512596
-4.1157155	prudence	-0.08512596
-4.1157155	smatter	-0.08512596
-3.9630654	gossips	-0.08512596
-4.1157155	treason	-0.08512596
-4.1157155	godigoden	-0.08512596
-4.1157155	mumbling	-0.08512596
-4.1157155	utter	-0.08512596
-4.1157155	gravity	-0.08512596
-4.1157155	bowl	-0.08512596
-4.1157155	bread	-0.08512596
-3.686661	waking	-0.08512596
-3.9630654	sleeping	-0.08512596
-4.1157155	provided	-0.08512596
-4.1157155	princely	-0.08512596
-4.1157155	parentage	-0.08512596
-4.1157155	nobly	-0.08512596
-4.1157155	traind	-0.08512596
-3.9630654	stuffd	-0.08512596
-4.1157155	proportiond	-0.08512596
-4.1157155	ones	-0.08512596
-4.1157155	puling	-0.08512596
-4.1157155	whining	-0.08512596
-4.1157155	mammet	-0.08512596
-4.1157155	graze	-0.08512596
-3.9630654	tot	-0.08512596
-3.9630654	ont	-0.08512596
-4.1157155	advise	-0.08512596
-4.1157155	starve	-0.08512596
-4.1157155	acknowledge	-0.08512596
-4.1157155	sees	-0.08512596
-4.1157155	week	-0.08512596
-3.8351657	bridal	-0.15920661
-3.9630654	dim	-0.08512596
-3.576202	monument	-0.19464083
-4.1157155	prevented	-0.08512596
-4.1157155	leaving	-0.08512596
-4.1157155	practise	-0.08512596
-4.1157155	stratagems	-0.08512596
-4.1157155	subject	-0.08512596
-3.8351657	needs	-0.15920661
-4.1157155	stealth	-0.08512596
-4.1157155	dishclout	-0.08512596
-4.1157155	eagle	-0.08512596
-3.9630654	quick	-0.08512596
-4.1157155	twere	-0.08512596
-3.9630654	speakst	-0.08512596
-4.1157155	comforted	-0.08512596
-4.1157155	marvellous	-0.08512596
-4.1157155	displeasd	-0.08512596
-4.1157155	absolvd	-0.08512596
-4.1157155	damnation	-0.08512596
-4.1157155	wicked	-0.08512596
-4.1157155	dispraise	-0.08512596
-4.1157155	praisd	-0.08512596
-3.9630654	twain	-0.08512596
-3.8351657	remedy	-0.3414364
-4.1157155	slack	-0.08512596
-4.1157155	uneven	-0.08512596
-4.1157155	immoderately	-0.08512596
-4.1157155	counts	-0.08512596
-4.1157155	dangerous	-0.08512596
-4.1157155	sway	-0.08512596
-4.1157155	hastes	-0.08512596
-4.1157155	inundation	-0.08512596
-4.1157155	minded	-0.08512596
-4.1157155	society	-0.08512596
-4.1157155	slowd	-0.08512596
-4.1157155	certain	-0.08512596
-4.1157155	text	-0.08512596
-4.1157155	abusd	-0.08512596
-4.1157155	victory	-0.08512596
-4.1157155	wrongst	-0.08512596
-4.1157155	report	-0.08512596
-4.1157155	spake	-0.08512596
-4.1157155	slandred	-0.08512596
-3.9630654	leisure	-0.08512596
-4.1157155	evening	-0.08512596
-3.9630654	mass	-0.08512596
-4.1157155	serves	-0.08512596
-4.1157155	pensive	-0.08512596
-4.1157155	shield	-0.08512596
-4.1157155	strains	-0.08512596
-4.1157155	compass	-0.08512596
-4.1157155	prorogue	-0.08512596
-4.1157155	hearst	-0.08512596
-3.9630654	prevent	-0.08512596
-4.1157155	resolution	-0.08512596
-3.8351657	presently	-0.085126
-4.1157155	joind	-0.08512596
-3.9630654	seald	-0.08512596
-4.1157155	label	-0.08512596
-4.1157155	deed	-0.08512596
-4.1157155	treacherous	-0.08512596
-4.1157155	revolt	-0.08512596
-4.1157155	longexperiencd	-0.08512596
-3.8351657	present	-0.085126
-4.1157155	extremes	-0.08512596
-4.1157155	empire	-0.08512596
-4.1157155	arbitrating	-0.08512596
-4.1157155	commission	-0.08512596
-4.1157155	issue	-0.08512596
-4.1157155	execution	-0.08512596
-4.1157155	likely	-0.08512596
-4.1157155	undertake	-0.08512596
-4.1157155	copst	-0.08512596
-4.1157155	darst	-0.08512596
-4.1157155	battlements	-0.08512596
-4.1157155	tower	-0.08512596
-4.1157155	thievish	-0.08512596
-4.1157155	lurk	-0.08512596
-4.1157155	serpents	-0.08512596
-4.1157155	chain	-0.08512596
-3.9630654	roaring	-0.08512596
-4.1157155	charnel	-0.08512596
-4.1157155	oercoverd	-0.08512596
-3.9630654	quite	-0.08512596
-4.1157155	rattling	-0.08512596
-4.1157155	reeky	-0.08512596
-4.1157155	shanks	-0.08512596
-4.1157155	yellow	-0.08512596
-4.1157155	chapless	-0.08512596
-3.9630654	skulls	-0.08512596
-3.9630654	newmade	-0.08512596
-4.1157155	shroud	-0.085126
-4.1157155	unstaind	-0.08512596
-3.9630654	vial	-0.08512596
-4.1157155	distilled	-0.08512596
-4.1157155	liquor	-0.08512596
-3.8351657	drink	-0.085126
-4.1157155	drowsy	-0.08512596
-4.1157155	pulse	-0.08512596
-4.1157155	progress	-0.08512596
-4.1157155	surcease	-0.08512596
-4.1157155	warmth	-0.08512596
-4.1157155	testify	-0.08512596
-4.1157155	livest	-0.08512596
-3.9630654	roses	-0.08512596
-4.1157155	fade	-0.08512596
-4.1157155	paly	-0.08512596
-4.1157155	deprivd	-0.08512596
-4.1157155	supple	-0.08512596
-4.1157155	government	-0.08512596
-3.9630654	stiff	-0.08512596
-4.1157155	stark	-0.08512596
-3.9630654	borrowed	-0.08512596
-4.1157155	shrunk	-0.08512596
-4.1157155	continue	-0.08512596
-4.1157155	twoandforty	-0.08512596
-3.9630654	awake	-0.08512596
-4.1157155	pleasant	-0.08512596
-4.1157155	manner	-0.08512596
-4.1157155	country	-0.08512596
-4.1157155	uncovered	-0.08512596
-4.1157155	borne	-0.08512596
-3.576202	vault	-0.10844315
-4.1157155	kindred	-0.08512596
-4.1157155	toy	-0.08512596
-4.1157155	abate	-0.08512596
-4.1157155	acting	-0.08512596
-3.9630654	prosperous	-0.08512596
-4.1157155	resolve	-0.08512596
-3.9630654	speed	-0.15920661
-4.1157155	invite	-0.08512596
-3.9630654	hire	-0.085126
-4.1157155	cooks	-0.08512596
-3.9630654	try	-0.08512596
-3.9630654	lick	-0.08512596
-3.9630654	cook	-0.08512596
-4.1157155	begone	-0.08512596
-4.1157155	unfurnishd	-0.08512596
-4.1157155	forsooth	-0.08512596
-4.1157155	peevish	-0.08512596
-4.1157155	selfwilld	-0.08512596
-4.1157155	harlotry	-0.08512596
-4.1157155	headstrong	-0.08512596
-4.1157155	gadding	-0.08512596
-4.1157155	opposition	-0.08512596
-4.1157155	behests	-0.08512596
-4.1157155	enjoind	-0.08512596
-4.1157155	prostrate	-0.08512596
-4.1157155	knot	-0.08512596
-4.1157155	knit	-0.08512596
-4.1157155	becomed	-0.08512596
-4.1157155	stepping	-0.08512596
-4.1157155	bounds	-0.08512596
-4.1157155	ast	-0.08512596
-4.1157155	reverend	-0.08512596
-3.9630654	city	-0.085126
-4.1157155	closet	-0.08512596
-4.1157155	sort	-0.08512596
-4.1157155	needful	-0.08512596
-3.9630654	fit	-0.20159672
-4.1157155	furnish	-0.08512596
-4.1157155	provision	-0.08512596
-4.1157155	tush	-0.08512596
-4.1157155	deck	-0.08512596
-4.1157155	housewife	-0.08512596
-4.1157155	wondrous	-0.08512596
-4.1157155	wayward	-0.08512596
-4.1157155	reclaimd	-0.08512596
-4.1157155	attires	-0.08512596
-4.1157155	orisons	-0.08512596
-3.9630654	cross	-0.08512596
-4.1157155	busy	-0.08512596
-4.1157155	culld	-0.08512596
-4.1157155	necessaries	-0.08512596
-4.1157155	behooffull	-0.08512596
-3.8351657	knows	-0.085126
-4.1157155	thrills	-0.08512596
-4.1157155	freezes	-0.08512596
-4.1157155	heat	-0.08512596
-4.1157155	mixture	-0.08512596
-4.1157155	lays	-0.08512596
-3.488217	dagger	-0.19464083
-4.1157155	subtilly	-0.08512596
-4.1157155	ministred	-0.08512596
-4.1157155	dishonourd	-0.08512596
-4.1157155	tried	-0.08512596
-3.686661	wake	-0.08512596
-4.1157155	redeem	-0.08512596
-4.1157155	stifled	-0.08512596
-3.9630654	mouth	-0.08512596
-4.1157155	healthsome	-0.08512596
-4.1157155	breathes	-0.08512596
-4.1157155	strangled	-0.08512596
-4.1157155	horrible	-0.08512596
-4.1157155	together	-0.08512596
-4.1157155	receptacle	-0.08512596
-3.686661	buried	-0.13946854
-4.1157155	ancestors	-0.08512596
-4.1157155	packd	-0.08512596
-4.1157155	festring	-0.08512596
-4.1157155	spirits	-0.08512596
-4.1157155	resort	-0.08512596
-4.1157155	smells	-0.08512596
-4.1157155	shrieks	-0.08512596
-4.1157155	mandrakes	-0.08512596
-4.1157155	torn	-0.08512596
-3.9630654	hearing	-0.08512596
-4.1157155	distraught	-0.08512596
-4.1157155	environed	-0.08512596
-4.1157155	hideous	-0.08512596
-4.1157155	fears	-0.08512596
-4.1157155	madly	-0.08512596
-4.1157155	forefathers	-0.08512596
-4.1157155	kinsmans	-0.08512596
-4.1157155	club	-0.08512596
-4.1157155	dash	-0.08512596
-3.9630654	desprate	-0.08512596
-4.1157155	ghost	-0.08512596
-4.1157155	seeking	-0.08512596
-4.1157155	spit	-0.08512596
-4.1157155	rapiers	-0.08512596
-4.1157155	keys	-0.08512596
-4.1157155	spices	-0.08512596
-4.1157155	dates	-0.08512596
-4.1157155	quinces	-0.08512596
-4.1157155	pastry	-0.08512596
-4.1157155	cock	-0.08512596
-4.1157155	crowd	-0.08512596
-4.1157155	curfew	-0.08512596
-3.9630654	bell	-0.08512596
-4.1157155	rung	-0.08512596
-4.1157155	bakd	-0.08512596
-4.1157155	meats	-0.08512596
-4.1157155	angelica	-0.08512596
-4.1157155	spare	-0.08512596
-4.1157155	cost	-0.08512596
-4.1157155	cotquean	-0.08512596
-3.9630654	watching	-0.08512596
-4.1157155	whit	-0.08512596
-4.1157155	watchd	-0.08512596
-4.1157155	lesser	-0.08512596
-4.1157155	mousehunt	-0.08512596
-3.9630654	jealous	-0.08512596
-4.1157155	drier	-0.08512596
-3.9630654	logs	-0.08512596
-3.9630654	trouble	-0.08512596
-4.1157155	whoreson	-0.08512596
-4.1157155	loggerhead	-0.08512596
-4.1157155	waken	-0.08512596
-4.1157155	chat	-0.08512596
-4.1157155	slugabed	-0.08512596
-4.1157155	sweetheart	-0.08512596
-4.1157155	pennyworths	-0.08512596
-3.9630654	forgive	-0.20159672
-4.1157155	fright	-0.08512596
-4.1157155	dressd	-0.08512596
-4.1157155	clothes	-0.08512596
-4.1157155	aquavitae	-0.08512596
-4.1157155	revive	-0.08512596
-4.1157155	deceasd	-0.08512596
-4.1157155	settled	-0.08512596
-4.1157155	separated	-0.08512596
-4.1157155	frost	-0.08512596
-3.8351657	woful	-0.24083284
-4.1157155	wail	-0.08512596
-4.1157155	ties	-0.08512596
-4.1157155	deflowered	-0.08512596
-4.1157155	soninlaw	-0.08512596
-4.1157155	accursd	-0.08512596
-3.9630654	unhappy	-0.08512596
-4.1157155	lasting	-0.08512596
-4.1157155	labour	-0.08512596
-4.1157155	pilgrimage	-0.08512596
-4.1157155	solace	-0.08512596
-4.1157155	catchd	-0.08512596
-4.1157155	divorced	-0.08512596
-4.1157155	wronged	-0.08512596
-4.1157155	spited	-0.08512596
-3.9630654	detestable	-0.08512596
-4.1157155	overthrown	-0.08512596
-4.1157155	despisd	-0.08512596
-4.1157155	distressed	-0.08512596
-4.1157155	hated	-0.08512596
-4.1157155	martyrd	-0.08512596
-4.1157155	uncomfortable	-0.08512596
-3.9630654	joys	-0.08512596
-3.9630654	confusions	-0.08512596
-4.1157155	eternal	-0.08512596
-4.1157155	promotion	-0.08512596
-3.9630654	advancd	-0.08512596
-3.9630654	seeing	-0.08512596
-4.1157155	stick	-0.08512596
-4.1157155	custom	-0.08512596
-4.1157155	bids	-0.08512596
-4.1157155	lament	-0.08512596
-4.1157155	reasons	-0.08512596
-4.1157155	merriment	-0.08512596
-4.1157155	ordained	-0.08512596
-3.9630654	office	-0.08512596
-4.1157155	funeral	-0.08512596
-3.9630654	instruments	-0.08512596
-4.1157155	melancholy	-0.08512596
-4.1157155	bells	-0.08512596
-4.1157155	burial	-0.08512596
-4.1157155	solemn	-0.08512596
-4.1157155	hymns	-0.08512596
-4.1157155	dirges	-0.08512596
-4.1157155	lowr	-0.08512596
-4.1157155	crossing	-0.08512596
-4.1157155	pipes	-0.08512596
-3.9630654	pitiful	-0.08512596
-4.1157155	amended	-0.08512596
-4.1157155	plays	-0.08512596
-3.9630654	dump	-0.08512596
-4.1157155	money	-0.08512596
-4.1157155	gleek	-0.08512596
-4.1157155	minstrel	-0.08512596
-4.1157155	servingcreature	-0.08512596
-4.1157155	servingcreatures	-0.08512596
-4.1157155	pate	-0.08512596
-4.1157155	crotchets	-0.08512596
-3.9630654	re	-0.08512596
-3.9630654	fa	-0.08512596
-3.8351657	iron	-0.08512596
-4.1157155	griping	-0.08512596
-4.1157155	doleful	-0.08512596
-4.1157155	dumps	-0.08512596
-4.1157155	oppress	-0.08512596
-4.1157155	simon	-0.08512596
-4.1157155	catling	-0.08512596
-4.1157155	hugh	-0.08512596
-4.1157155	rebeck	-0.08512596
-4.1157155	james	-0.08512596
-4.1157155	soundpost	-0.08512596
-4.1157155	singer	-0.08512596
-4.1157155	speedy	-0.08512596
-4.1157155	lend	-0.08512596
-4.1157155	redress	-0.08512596
-4.1157155	pestilent	-0.08512596
-4.1157155	tarry	-0.08512596
-4.1157155	mourners	-0.08512596
-4.1157155	flattering	-0.08512596
-4.1157155	presage	-0.08512596
-4.1157155	bosoms	-0.08512596
-4.1157155	lightly	-0.08512596
-4.1157155	lifts	-0.08512596
-4.1157155	cheerful	-0.08512596
-4.1157155	emperor	-0.08512596
-4.1157155	balthasar	-0.08512596
